0.07453633 0.14273955 0.11430806 -0.049501445 -0.09529 0.12547898 0.026907226 -0.047426485 0.05203389 0.02930528 -0.11630142 -0.08368708 0.18246277 0.07020693 0.033737388 0.032437067 0.13631606 -0.17747667 -0.057652343 0.0369071 0.14410813 0.005053299 -0.068571284 -0.012902312 -0.005943488 -0.035775762 -0.09181074 -0.04407188 0.0036896293 -0.06883365 0.14390057 0.042824104 -0.062455315 0.032729764 -0.12353151 -0.032596555 0.024380941 0.11326674 0.11136486 -0.064438015 -0.1348017 0.03397036 -0.10615434 0.039185077 -0.117709875 -0.049667273 0.13250835 -0.033406563 0.09014881 0.094950356 0.09804116 0.042737246 -0.06663166 0.02514774 0.008643071 0.09476045 0.06117397 0.06511453 0.024406305 -0.07867788 -0.071284495 -0.06276532 -0.03204519 0.06780327 -0.026579529 -0.041131396 -0.020998804 0.11696239 -0.012000999 0.027359977 -0.03091519 -0.025531588 -0.09030046 -0.06538027 -0.133275 0.0056848577 -0.0767022 0.045241553 -0.098808534 -0.14047408 0.058696575 -0.06497449 -0.07495355 0.05718078 -0.028381353 -0.0066062748 0.088636965 0.105023384 -0.05056992 -0.017091062 0.03047563 -0.03679536 -0.166796 0.0706489 -0.020941086 -0.061282035 -0.1350169 0.12271861 -0.054991312 -0.12418032 0.084357254 0.1521458 -0.013475123 -0.0777531 0.028331557 -0.031372357 -0.10019201 -0.069587246 -0.0021358745 -0.07088683 -0.0551124 0.13978758 -0.11865218 -0.08768102 -0.023441592 0.066715255 -0.010618667 0.046832148 0.040628802 0.07451122 -0.018751003 0.09632445 -0.031803492 -0.01145951 0.076246284 0.027309198 0.07090545 0.10881325 -0.16063586 -0.119492434 0.12543087 -0.13093768 -0.10283096 0.037129156 -0.120732665 -0.17535894 0.03290683 -0.13746946 -0.07278835 0.0027731028 0.12598996 -0.08005065 0.13080677 -0.07602019 -0.112312175 0.18611379 -0.11529712 0.10601697 -0.086308606 0.045137774 -0.081729054 0.13658068 -0.029800544 -0.039058566 0.12019386 0.108275406 -0.12731497 -0.045129146 0.01300368 -0.012430413 0.034557164 -0.108403206 -0.058579203 -0.03714574 -0.0611072 -0.008738142 -0.13741629 0.005302833 0.15875416 0.16973571 0.09062605 0.043882925 -0.026912091 0.03323994 -0.011332233 0.09284987 -0.04725438 -0.14985515 0.0054183756 0.10362648 0.14329927 0.10857128 -0.02980916 -0.09398549 -0.058385607 0.018791972 -0.11778766 -0.1999759 -0.09470623 -0.15086849 -0.102444164 0.09758428 -0.0047668903 0.12771839 0.06754615 -0.18613264 0.0066323057 0.04682619 -0.04140097 -0.029116217 -0.03255335 0.13922349 0.0067397356 -0.15849835 -0.017229427 0.017854579 0.051457595 -0.18941942 -0.029481342 0.040807102 0.11795241 -0.009733394 0.034308013 -0.102082126 -0.07770856 0.11911439 -0.024341665 -0.1286066 0.08053787 -0.16560696 0.0773913 0.14628837 -0.06990805 0.034237728 -0.048138518 0.06857922 -0.024374498 0.07748379 -0.046985127 -0.040837664 -0.15433772 0.11457334 -0.113335446 -0.087553345 -0.0023255718 -0.120365016 0.05964143 0.13457066 0.06242452 0.08345607 -0.065521926 -0.0082234545 0.057000745 0.058199573 -0.008729547 0.010239597 -0.012369398 -0.029660592 -0.03151101 -0.19858323 -0.062491626 -0.07503887 -0.048105832 0.18092805 0.08102078 0.034285206 -0.09635883 -0.10664641 0.050353445 0.045824036 0.032295268 0.13922374 -0.030312195 -0.019909434 -0.04656441 0.12048953 -0.1317492 0.10271261 -0.12034529 0.10288601 0.08850749 -0.0387336 0.08290894 -0.13302588 0.025301745 -0.098181136 0.11308654 0.07600817 -0.107730605 0.052280694 -0.009873851 -0.019779967 -0.10340317 -0.04301523 -0.07335826 0.071033485 -0.025544783 -0.006281654 -0.13749856 -0.019769937 -0.17232156 -0.021751711 0.068995535 0.19933377 -0.092276745 0.07388946 0.008490714 0.055552363 -0.07619667 0.19901566 0.0068450184 -0.06708392 0.06942674 -0.12770568 0.1761223 -0.013420989 -0.18437973 -0.11711486 -0.10470617 0.022945505 -0.028260324 -0.15913711 0.006523738 0.15141484 -0.01663161 -0.04052869 -0.042884126 -0.106533244 -0.13000415 -0.17749201 0.06781914 -0.03188997 0.02635458 0.06446458 -0.008911796 -0.029054245 0.04422627 0.02755675 0.054218877 -0.04187192 -0.008750761 -0.062257674 0.008517159 -0.038971458 0.12892471 0.10307773 0.0601674 0.066368304 -0.065031625 0.11986375 -0.13719712 -0.13966183 0.12217959 0.11153316 -0.0030269518 0.10540755 -0.07400657 0.0058926265 -0.018416764 0.13012175 0.12475351 0.008158159 -0.017143665 0.05634275 0.107786834 -0.09227174 0.12927204 0.073870525 -0.015901757 -0.10221764 0.14888935 -0.15466563 0.10618427 0.13229178 0.10582175 -0.13179706 0.03424711 -0.025736189 -0.02840353 0.069129355 -0.061529156 -0.040030543 -0.063757114 0.09093832 0.0033017844 0.018366428 -0.03625851 -0.044545226 -0.12730333 -0.0007244961 0.1489496 -0.07014057 0.027705375 0.023376172 -0.08695907 0.19159923 0.00534687 0.18483523 -0.15302218 -0.12964673 -0.113671124 0.0011209478 -0.07506814 -0.09267385 0.10974343 0.046449915 -0.054285843 -0.11780236 -0.0773799 0.058949765 -0.0858629 -0.02484904 0.15276633 0.045013465 0.040493183 -0.0560472 -0.048748653 -0.15525854 0.093965515 -0.03062438 0.016974976 -0.03696762 0.14537284 0.10000815 0.06644022 0.08587405 -0.15625283 0.120589964 0.027206926 0.14893083 0.16967373 0.09612804 0.06774159 -0.01303222 -0.05321781 -0.018360248 -0.014633429 0.18592437 0.0149169685 -0.049515586 0.029812485 0.06288007 0.018333806 -0.012896227 -0.102463655 -0.03582311 0.041735884 -0.049662348 -0.044166513 -0.08244838 -0.0027065908 -0.12969412 0.032795884 -0.11580737 -0.10814587 0.009641251 0.065985695 0.059894767 -0.12890002 0.010036497 -0.046094615 -0.071702875 -0.14624125 -0.14898485 0.16907834 0.059268463 0.028040925 -0.0547471 -0.048272874 -0.050598145 -0.049437787 0.115791336 -0.104148366 -0.042854458 0.13655825 0.031660143 0.06447728 0.091269575 0.053546097 0.044667568 -0.09955969 -0.16599675 -0.00080726435 0.13903162 -0.11871753 -0.12784675 0.022191709 -0.097157106 -0.113942705 -0.04913562 -0.06877841 -0.06389908 -0.011410656 0.07182509 -0.123258375 -0.006110753 0.024761178 0.06303046 0.17390466 0.05271172 -0.045035344 0.11270225 0.007892264 -0.0922575 0.022152448 0.0036782098 0.035116337 -0.0599807 0.07053867 0.022192871 -0.09028512 -0.04628439 -0.06882028 -0.018580956 -0.016390437 0.08117933 -0.01906552 -0.07701705 0.1277433 -0.12719868 0.0025848725 -0.067971826 0.13229273 -0.14595461 -0.1007157 -0.0023223704 -0.07810094 0.014333206 -0.13307358 0.07914548 -0.08384078 0.12208978 -0.018847097 -0.15534158 0.14200328 -0.054681428 -0.08422622 -0.020584729 0.04508326 -0.04005946 -0.118858 -0.14984845 0.09315616 0.091597654 -0.03012534 -0.06479512 0.0005598835 0.06618934 0.04244476 0.083892845 0.112840466 -0.11542677 0.019177057 0.07938004 -0.051309418 -0.037061486 0.11847358 -0.018607192 -0.0069763 0.098753475 0.03383694 0.015516551 -0.056504346 -0.049865637 0.010663982 -0.04026691 -0.045053862 0.13232662 0.08140253 -0.040056292 0.04197745 0.028338015 0.07927078 -0.14502655 0.18870515 -0.124094285 0.026545165 0.030904783 0.18669315 -0.05446064 -0.11318027 -0.12487667 -0.039333913 -0.0018075359 0.09067803 0.031343717 -0.13443343 0.040426597 0.01289127 -0.0505473 -0.04674405 -0.08234846 0.056115787 -0.03812791 0.011579513 0.06267806 -0.03706552 0.049755495 0.093865395 0.1343452 0.073044844 0.011678877 -0.04675754 0.1756237 -0.01593236 0.043361705 0.05255372 -0.16370927 0.057287883 0.05655862 -0.075286694 -0.06558613 -0.03295172 -0.017905854 -0.025217483 -0.07353749 0.19101714 -0.03382388 -0.012887922 -0.14806901 -0.07586019 0.06291037 -0.025638519 -0.124182574 -0.0027598017 -0.002855094 -0.05641957 0.07668766 0.11221129 -0.07802642 0.019659517 -0.08978819 0.054953743 -0.014997601 0.08943939 0.055028904 -0.043895643 0.10122966 0.078606844 -0.06610945 0.10415868 0.041578095 0.15578787 -0.06343985 -0.06260929 0.0948674 0.043521173 0.039297223 -0.066145875 -0.050861295 -0.029796759 -0.15613542 -0.13397376 0.017008303 0.017580781 -0.04607124 -0.14684354 0.031087836 0.09711928 0.0022274526 -0.13181934 0.007625797 -0.06878092 0.14295845 -0.017108506 0.066374205 0.08827547 -0.028975388 0.07919295 -0.05629247 -0.013878457 0.0862459 -0.1718337 -0.13358192 -0.042756345 -0.094940625 -0.0004079926 -0.06619982 0.08694312 0.07465927 -0.05874891 -0.12239792 -0.006464141 -0.08597652 -0.13413171 -0.061832566 -0.06959024 -0.10630162 0.041984845 -0.030151326 0.0348016 0.020418778 -0.05071447 -0.08998624 -0.11336893 0.19717711 0.099231794 -0.110454716 0.037374683 0.11675695 0.103325464 -0.07793432 -0.018932197 -0.1486815 -0.05824992 0.13521217 0.079891145 -0.092443965 -0.058933605 -0.10233152 -0.09413674 -0.056205373 -0.029975776 0.05583173 -0.008179878 0.021667695 0.09476977 -0.05016781 0.123998396 -0.009901543 -0.06125294 0.04336477 0.09082452 0.17790009 0.002438694 -0.020955773 0.07661435 0.01034097 -0.077595375 0.03561892 0.07166399 0.034848407 -0.01991264 0.015470519 -0.12551044 0.019572953 0.011036005 0.04580829 0.12564677 -0.023343172 0.04149216 -0.01669226 -0.021622356 0.096221976 0.087044924 0.012615794 0.013550147 0.12578718 0.06887681 -0.032577064 -0.0029211403 0.034714267 -0.07300561 0.10294866 0.17382932 -0.09493985 0.104985714 -0.061662387 -0.07119602 0.09854441 0.13435225 0.06637744 0.04478382 -0.07323871 0.048575383 -0.121861115 0.09212679 -0.08859765 0.007731911 -0.05688351 -0.009624598 0.118647754 -0.081265114 -0.066007726 -0.042504914 0.10358416 -0.09371012 0.09607452 -0.06521448 -0.062204547 0.1039686 -0.04230381 0.0055428203 0.1140785 0.15601458 -0.003421766 0.16619848 0.08286246 0.074012265 -0.04298381 0.01508601 -0.07334704 -0.18356249 -0.12866817 0.07974528 0.10214012 -0.029625325 -0.17846407 -0.0020743636 -0.018864041 -0.017160669 -0.10386391 0.13642876 -0.009401743 -0.018671408 -0.13886568 -0.014378898 0.03131792 -0.14081 0.09654664 0.15938358 0.12263077 -0.040267862 0.12820046 0.023373188 0.07486926 0.0128885135 0.10244464 -0.033495314 -0.106886044 -0.17162897 0.09730403 -0.09649424 0.020311786 -0.051138718 -0.08047505 -0.17227025 -0.037530772 -0.05009017 -0.088141285 0.0024615466 -0.12097374 0.016886137 0.11441102 0.047426697 0.08806083 -0.07533578 0.025420694 -0.06507456 -0.08469255 0.077031575 0.0649889 0.070871435 0.1380481 0.07092762 0.05450624 0.058940124 0.17638008 0.073385246 -0.010104158 0.19424653 0.052135002 -0.19430318 -0.12653345 0.11268502 -0.12664868 -0.09000999 -0.19924653 0.1457317 -0.095662326 0.1316374 0.0111660985 0.08000295 0.05069154 -0.033948433 -0.061163124 -0.0598 0.06493422 -0.17037301 0.07536972 -0.021183021 0.14089371 -0.039401855 -0.030990496 0.07190885 -0.012802859 0.028904507 -0.07612879 -0.10062718 0.07163722 0.1616482 0.04663306 0.025873572 -0.035598796 -0.03896817 -0.07666538 0.0935542 -0.017733276 0.07117466 -0.004792135 -0.022665186 -0.13497789 0.025025282 -0.0040718387 0.043141197 -0.049053207 -0.07448404 -0.0087259635 0.046390515 -0.053809475 0.0010597267 -0.015161136 0.06769428 0.16273367 0.054489266 -0.041354273 0.09829267 0.08423238 0.04204942 0.023841342 -0.13934113 0.019550284 0.07515353 0.08531397 -0.036412288 0.08324697 0.051776588 0.03588596 -0.034609325 0.034935094 -0.0600087 -0.027668113 0.017069405 -0.018893134 -0.15990634 -0.037062865 -0.035500903 0.02289815 -0.08939809 0.105747655 -0.09390416 0.07651589 -0.0625493 -0.16378507 -0.019426921 0.08373999 -0.11297061 0.084914826 0.19013993 -0.08351435 0.10828274 0.06560811 -0.067575276 0.15082374 0.11169764 -0.1401961 -0.02124389 0.080553286 -0.0607243 0.022734953 -0.003896784 -0.05355233 0.0020900136 0.010126925 -0.05909863 -0.009750629 0.057022538 0.09141439 0.06251622 0.04173253 0.047224473 -0.067949705 0.07950736 -0.0465912 -0.09582885 -0.093327604 0.04009073 -0.09641907 -0.015331939 0.055529058 -0.12735312 0.1157521 0.029111627 0.090098016 0.08702075 0.07104088 -0.120301366 -0.12434518 -0.02333309 0.08359032 0.051184174 0.08213586 0.06571857 -0.12844038 -0.040030245 -0.14531027 -0.039566036 0.15976723 0.04100466 -0.18299176 -0.04922581 -0.12154537 -0.13368607 -0.09808346 0.04653479 0.029685235 -0.08502581 0.19112383 -0.067640476 -0.022912612 -0.0586099 -0.12078311 0.087917276 0.014151821 0.010063442 0.068746276 -0.07941972 -0.059447862 0.13003795 0.029803568 -0.036203038 -0.13139437 -0.0045646857 0.07289233 -0.16670446 -0.03742808 0.043232474 0.0030363568 0.1084811 0.09004585 0.19821694 -0.1308979 0.0916581 0.14026172 0.064665705 0.044059318 -0.1359986 0.035032947 0.15926991 -0.038073864 -0.013436954 0.036323693 -0.026826082 -0.06590059 -0.11310961 0.014842907 0.005231974 0.0030788574 0.007916673 0.01227396 0.02468682 0.18591432 0.07253965 0.063996844 -0.090464436 -0.095820814 -0.08943553 -0.18416622 0.02118075 -0.119978406 0.14668815 0.17706987 0.035520952 0.1116696 0.040411774 0.0071298108 -0.02823019 -0.057139434 -0.15945618 -0.047666613 0.11500603 -0.03601164 -0.063714996 -0.031861924 -0.0480881 0.019994985 -0.09393018 -0.03110084 0.021347312 -0.06357502 0.036438387 -0.097270004 0.013640933 0.017907452 -0.14936943 -0.06450338 0.18476477 0.0026278102 0.11646962 0.193249 0.17332952 0.003149775 0.07558095 0.10418667 0.052835852 0.071934335 0.04130427 0.024048762 0.12684691 -0.09355997 0.093624584 -0.114921086 -0.02595979 0.016123611 -0.108620286 0.044346634 -0.14714634 0.037846602 -0.06554576 -0.06926284 0.16493818 0.110509336 -0.11889503 0.003411055 -0.10421349 -0.09369894 -0.01175981 0.02934271 0.19539776 0.13254805 -0.033863813 0.08830454 0.0912566 0.101050906 0.08121071 0.067886844 -0.15144832 0.06673987 0.104005694 0.021169174 0.021593558 -0.11753539 -0.13855712 -0.07957289 0.0993974 -0.12918508 0.06875782 0.09635857 -0.11027546 0.006056057 -0.17701432 0.1402019 0.035209365 -0.058855068 -0.08989401 0.021869062 -0.02721169 -0.19649033 -0.013345129 -0.008306405 -0.093368195 0.04199583 0.08901734 -0.04316645 -0.014947732 0.10775715 -0.019846963 0.03617263 0.16444513 0.041562796 -0.051858675 0.023069212 -0.092705555 -0.0013869158 -0.05494612 0.11799969 0.09387302 -0.015817558 -0.04327722 0.00015947768 0.008438201 -0.11164428 -0.012257122 -0.03974406 0.03989381 -0.0150606185 0.088245355 -0.079498015 -0.11363075 0.09813648 -0.034659673 -0.007488237 -0.087519884 0.15207325 -0.0011109692 -0.0066945367 -0.029829392 0.04966573 0.13970117 -0.008092434 0.0135642765 0.060741484 0.005279725 -0.09013921 -0.01665141 -0.023285665 -0.12549706 -0.1380132 0.077126786 -0.12832513 -0.15225618 -0.06363689 -0.08344247 -0.08278293 0.021812689 -0.04712333 -0.097085826 -0.051120866 0.1091084 0.049864147 0.090087794 0.04283714 -0.019450923 0.0637129 -0.0472251 0.1897963 0.041734144 0.15028483 0.053517427 -0.07293507 -0.049584534 0.009733857 0.044140335 0.035517752 0.012652442 -0.097941436 -0.007919094 0.022332104 0.15622686 0.048530888 -0.05396236 -0.020601263 0.13228437 -0.01684237 -0.087957546 0.034971472 0.10189956 0.015441497 -0.0747663 0.070413165 0.086936384 -0.0010297403 -0.15162085 0.052123167 0.052330106 0.14737386 0.073906794 -0.011867962 -0.07544643 -0.18929975 0.041275382 0.038093485 -0.06276297 -0.061548192 0.06682242 -0.042242717 0.00056061265 0.011296497 -0.0021398037 0.00779359 0.058630783 -0.13511759 -0.039494406 0.06646407 -0.1353762 0.026104962 0.049428772 0.1819118 0.038846456 0.052722406 0.10437193 -0.11057182 -0.078659154 -0.010912931 -0.053827967 0.15059489 0.026968582 0.022724269 -0.06587117 -0.0890429 -0.022419525 -0.03544976 0.003974076 -0.02994079 -0.028066022 -0.12935762 0.10941143 -0.12848257 0.114628635 0.03277791 0.11827584 -0.047065552 0.006256503 -0.0020400211 -0.14284506 -0.035877727 0.03621904 -0.00982105 -0.034858882 0.100574695 0.113523446 -0.14861327 0.044618614 0.085397325 0.14130042 0.032503862 0.0524921 -0.12689619 0.11725487 0.029369233 -0.0053736805 -0.10881841 -0.033626504 0.071988694 0.16469246 -0.05366811 -0.1173227 0.062657066 0.07912623 0.042996343 0.0046336683 0.0062371395 -0.011383161 0.016015602 -0.024138987 -0.14917567 0.10389439 0.07449918 -0.1239351 0.098476835 0.17975192 -0.094988495 -0.017608387 0.12621982 0.10368916 -0.03735238 0.1264378 0.16227554 -0.032059662 -0.18765089 0.15553965 0.06109565 0.029128397 -0.011651468 -0.003933335 0.023590248 -0.024734752 0.07301348 0.10369479 0.19396506 0.017588945 0.028348563 -0.097241126 0.06833172 0.16036616 0.024963409 0.017466435 -0.046109367 -0.13062845 -0.091011696 0.043062728 -0.015120684 0.026907591 -0.08473136 0.038453143 0.095452674 -0.08315953 -0.009195349 0.10689087 0.009591117 -0.05711896 -0.08442517 -0.10774615 -0.009542904 0.062076576 0.18043232 0.07456493 -0.18774274 0.092106394 -0.16482781 0.08556058 0.008310911 -0.04550181 0.006582558 -0.025691101 -0.033745106 -0.19515651 -0.02377232 0.13844901 -0.015075472 -0.07370285 0.13840437 0.008540394 -0.1002736 -0.14985067 -0.06910674 -0.024353778 0.060035586 -0.08936624 0.0029388526 -0.105212964 -0.14276056 -0.031391233 -0.1585304 -0.005025256 0.03768792 0.1262068 0.1281401 -0.1506639 -0.10747778 0.024268456 -0.047252573 -0.1009145 -0.0061202385 -0.062399127 -0.059319343 -0.024048833 -0.011075395 -0.045840625 -0.07687089 -0.0640758 -0.034822896 0.15146379 0.104443096 -0.15683438 0.044227447 0.12961142 0.016399255 0.0877122 -0.0152288545 0.070830986 0.02530101 0.09131666 0.08275999 -0.10096528 -0.10498724 -0.12152528 -0.17551424 -0.12085318 -0.04151932 0.043833207 -0.010778862 0.09328752 0.0012398519 0.0006288706 0.18279874 -0.13301341 -0.07417285 -0.024867995 0.109291784 0.012408418 0.14108329 -0.06346848 0.059503984 0.051217835 0.04823352 0.057547517 0.15434858 0.13811503 -0.017933223 -0.01857441 -0.044763755 0.06587705 -0.034403976 -0.06315523 0.0010354389 0.08349183 0.091502175 0.107389845 -0.13809958 0.069446124 -0.10629763 -0.00871089 0.062208474 -0.08447649 -0.07662624 -0.16740446 0.03722026 0.02593041 0.17407463 -0.009786036 0.08841401 -0.019900141 -0.030443786 -0.08785397 -0.05450302 0.1248847 0.013024992 -0.095942244 0.050453167 -0.077207915 -0.03368541 -0.090075634 -0.045357537 -0.06787044 0.053081732 0.13624048 -0.04937682 0.10789835 0.008759725 -0.0186249 -0.12372791 -0.031840585 0.06418725 0.0053776945 -0.06805093 0.0036592742 0.012511498 -0.09916299 -0.11963483 0.04617659 0.03712889 -0.0018644119 -0.07918205 -0.006009059 0.093549185 -0.06611653 0.12988238 0.13711825 -0.017471584 0.07465833 0.08166857 0.060539123 0.017343808 0.07389734 -0.18082838 0.11796166 0.074990734 -0.11624511 0.14714164 -0.056564737 -0.008310961 0.0022800665 0.15568887 0.022955121 -0.07960756 -0.04889252 0.037943657 -0.015511453 0.051958192 0.046674404 -0.03182954 0.15487294 0.10828145 0.07524414 -0.009681831 -0.09982442 -0.034356814 -0.17497598 0.093417324 0.0111646 -0.037798624 0.054204818 -0.09043497 -0.018920047 -0.08981008 -0.0005584472 0.12689696 -0.0507628 0.0042399764 -0.17193875 0.15802047 0.046060577 -0.16176857 0.107799664 0.12339821 -0.039915767 0.08957184 -0.022739168 0.15453024 0.024055758 -0.11993102 0.035372175 -0.00916371 0.11514255 0.1070145 0.03612343 0.013557196 -0.06292959 0.03551133 0.017143447 0.09103522 -0.024978805 -0.018277517 -0.051319927 0.02157325 0.011683123 -0.060559757 -0.074791275 0.023665586 -0.10058775 0.1439815 0.043995757 -0.07176753 0.11258193 -0.007678336 -0.088713035 0.016742324 -0.13745 -0.1374099 0.14393185 -0.018748466 0.0051700305 -0.06843586 0.14489755 0.041753966 0.027184192 -0.031806763 -0.123113416 -0.02243568 0.10728198 -0.016042074 -0.024558937 -0.057726473 -0.07221561 0.0234738 -0.059387673 -0.19566207 -0.0009673537 -0.057029516 0.0076578273 -0.026429733 -0.011586943 0.041313726 0.016120689 0.10109829 0.0914042 -0.027867436 0.059733506 0.08871033 -0.032767262 0.075319685 -0.12772404 -0.08956426 -0.056980807 0.00258387 0.07907733 -0.0075754733 0.04606938 0.07090087 0.022283474 0.0012055864 0.07738632 -0.0630255 0.07010279 -0.06854406 -0.114527225 0.026800355 0.11487527 -0.05865227 0.111146264 -0.00684664 -0.08452886 0.092924915 -0.10464191 -0.1555079 0.0055199782 -0.122884594 -0.13481437 -0.0403362 -0.0075876624 0.06683767 0.092199825 -0.0077321413 -0.033491205 -0.081311405 0.027856007 0.049261138 0.03961001 -0.053880997 -0.00895651 -0.08505454 0.17366599 -0.012626109 -0.14502941 -0.06568279 0.034324434 0.11789638 -0.021897761 0.112724416 0.102541424 -0.13722354 0.16350085 -0.1694645 -0.02786759 -0.06321676 -0.050495595 -0.17844333 -0.08755215 -0.04275547 -0.09370484 0.039235175 -0.0352377 0.117517136 -0.012999199 0.037466142 -0.14783959 0.06323582 -0.115157284 0.078172825 -0.13135535 0.03490898 0.045128476 -0.01965045 -0.1620214 -0.005547267 -0.096333005 -0.0030648154 0.11054118 0.013076918 0.0123090055 0.07210996 -0.049516495 -0.080683775 -0.10585457 -0.074267 -0.027301116 0.1490043 0.06663673 0.008554459 0.13050343 0.172765 -0.0013435337 0.061596345 -0.0051593687 -0.067055546 0.108528875 0.087785825 -0.06331263 -0.088516496 -0.07132154 -0.014401502 0.1678265 0.01272396 0.12553005 0.003752853 0.093781 -0.05390147 -0.10149226 0.030581018 0.19309123 0.029770399 -0.09973412 0.13560186 -0.013230859 0.045623492 -0.050180595 0.0002068352 -0.03709842 0.02714113 -0.09274158 0.1165713 0.042986643 0.19331144 -0.11007422 -0.04392678 0.016384574 -0.07578736 0.18506984 -0.084121734 0.068061076 -0.11086587 -0.07191195 -0.0070148013 0.029998178 -0.042813998 0.02668044 0.014445155 0.13502638 -0.07659592 -0.11061024 -0.15521902 -0.0059421277 -0.06430087 -0.0586749 -0.0625085 0.042464186 -0.012676719 0.10717517 0.008600993 -0.106698 -0.14355414 0.11046048 0.04006293 0.07451206 0.17007019 0.06537902 0.015539487 -0.07822322 0.17985447 0.18708472 -0.056622095 0.0024764426 -0.015242167 -0.0027043482 -0.02662812 0.14968407 0.004991324 -0.0016169604 0.15364489 0.17416902 0.00023612518 0.013389617 0.13192032 0.19874984 0.08583526 -0.13047332 0.057728913 0.08159379 -0.054763626 -0.095693655 0.069704525 0.1685763 -0.12548386 -0.08952225 -0.034477394 -0.06819202 0.09133803 -0.13700764 -0.011858383 0.05686399 -0.11281357 -0.18936604 -0.054266192 -0.10491594 -0.050151527 0.07487204 -0.035473518 -0.17763768 0.17774574 0.10761136 -0.14439678 0.080736436 0.03350414 0.016698228 0.051634997 -0.08990834 -0.0941198 0.07804296 -0.057976305 0.06588101 -0.0129229445 0.010743744 0.043418918 0.016720256 0.084670745 -0.1178591 0.050636977 -0.011145508 -0.029006824 -0.11362775 -0.121747985 0.020836307 0.13921309 -0.116144516 -0.057805657 0.17846933 0.07330359 0.14487687 -0.121311955 0.0109472945 -0.13800782 0.11440314 -0.18184045 -0.02989065 0.039306547 -0.17277496 -0.1990646 0.078532755 0.014606436 0.0028098447 -0.083791204 -0.16645123 -0.01430086 -0.00072523026 -0.087379545 0.07470632 -0.12721427 0.032388058 -0.1415904 -0.09263433 0.05348904 -0.0036032472 0.07272316 -0.02291216 0.10982026 -0.04573835 -0.116765216 -0.10020532 -0.02429791 0.07315625 -0.0996126 0.102925174 -0.011424955 -0.0378739 -0.17591341 0.06976537 -0.016280523 -0.12769124 -0.11897816 0.16193058 0.046594467 -0.04024456 0.11364359 0.13199714 0.0127847 -0.034255784 -0.027610743 -0.11158993 -0.103042856 0.11671076 0.10868522 -0.034784004 -0.004163908 0.1910492 0.034100402 0.037661534 -0.044378627 0.11216887 -0.017782923 0.110624984 0.03562631 0.05090953 0.09086518 -0.09177428 -0.035573646 -0.06167795 0.0146489935 0.107536785 0.09629117 0.093437836 -0.08886409 0.023034213 -0.088938735 0.025436848 0.03661684 -0.07532747 -0.1261556 0.0607236 -0.18255562 -0.086988114 -0.15213953 -0.02370774 0.030559013 -0.014472011 -0.031840276 -0.026721898 -0.078254804 -0.0520835 -0.13996921 0.12069547 0.09596123 0.09298128 0.12142439 0.04126 0.07206722 -0.034186494 0.01254446 -0.1089332 0.14560817 -0.11575055 -0.013802752 0.05351132 -0.060167443 0.07735319 -0.029496802 -0.10055532 0.11749375 -0.086766884 0.123114906 0.062176373 -0.19733761 -0.17873459 -0.09485632 -0.055089552 0.054920465 0.051638283 0.044857707 0.06382471 0.07221874 -0.077738695 0.12528662 -0.059488088 0.15729955 0.005352398 -0.13098237 -0.002969829 -0.039020568 0.036515284 -0.15870512 -0.06316226 -0.0926793 -0.161485 -0.053219773 0.08789548 -0.027587412 -0.08060609 -0.014089447 -0.19954106 -0.014296578 0.19371171 0.07831236 0.19231087 -0.055119295 0.16542634 0.0738414 -0.06405325 -0.036704786 -0.011824546 -0.020746423 -0.06666403 0.055760473 0.121902086 -0.124607556 0.11352699 -0.0018859593 -0.13381742 -0.06910755 0.06167769 0.044352062 0.117085256 -0.07176898 0.013679819 0.0403233 -0.093778335 -0.11564582 -0.15939341 0.06947485 0.13384001 -0.17565301 0.041698705 0.13139896 0.006209717 0.11131036 0.09766474 -0.07458343 0.024876254 0.062194105 0.013189147 -0.1380521 0.11814435 0.17790213 -0.016437106 -0.052465398 0.024473235 -0.05925099 0.11670219 -0.13862555 0.040984966 -0.14515173 -0.16075706 0.091079816 -0.06151882 -0.043776076 -0.030660225 0.055673163 0.023305671 0.092508584 0.06074488 -0.023718826 0.08635052 0.16117539 0.07657483 -0.048172873 -0.16262117 -0.018702008 0.09331185 -0.08722236 -0.04854312 0.0688303 0.13847515 0.008034322 -0.05209751 -0.12652847 0.03337937 0.073190056 -0.041913416 0.11578735 0.11607488 0.14198786 -0.15389255 0.024493063 -0.13636838 0.024104832 -0.1470235 -0.090684585 -0.08004103 0.029512146 0.00862497 -0.18362734 0.013913872 -0.014561012 -0.09761654 0.09904056 0.02568579 0.07118755 -0.016758164 0.042491365 0.021604782 0.037914235 -0.061334927 -0.11542579 -0.0060814605 -0.14912346 -0.12217541 0.023160439 0.04569293 -0.010307617 -0.0025417416 -0.087650135 0.07137433 -0.10187612 0.15966333 0.12460288 -0.10087676 -0.010977817 0.050789695 -0.070197225 0.1767189 0.02793855 -0.02248153 0.08116355 -0.082989715 -0.071408175 0.043849576 0.18680903 -0.029473534 0.052568495 -0.0671206 -0.04183933 -0.06850796 -0.04599899 -0.07449516 -0.030423 -0.02795109 0.11161182 -0.10235522 -0.08667935 -0.054982435 0.07331028 0.06741389 -0.1457995 0.043970447 -0.01520993 -0.011734235 0.06647502 -0.057453938 0.043013252 -0.043093193 0.032542057 -0.1819257 0.036105145 -0.029764084 0.06786045 -0.03484254 -0.04627722 0.11466676 -0.11935969 0.10226595 0.12102715 -0.044690736 -0.122415684 0.08491019 0.0856817 0.07885156 -0.025071654 0.0031313808 0.16906057 -0.01284931 -0.09107793 -0.05901122 -0.07077208 -0.02052605 -0.16708317 0.075499006 0.13666381 -0.07102156 -0.029583255 -0.02866428 0.13619415 0.011094225 -0.11792947 0.0885341 0.07743237 -0.09574255 -0.019657709 -0.15411288 0.032586966 0.06085482 0.031866837 -0.13804978 0.13700292 -0.09773343 0.098733954 -0.07077252 0.014801316 0.06711333 -0.065114245 0.012631965 -0.08749066 0.10508665 -0.07214571 -0.053338625 -0.04458427 -0.059806556 0.026489561 -0.07014741 0.005370777 0.005721213 -0.040711977 0.044008713 -0.0752596 0.15564582 0.08667988 -0.024118653 -0.078555696 -0.1434109 -0.16877554 0.022098938 -0.01825595 0.030780187 0.047678825 -0.04268126 -0.028356943 -0.19852513 0.05178542 -0.081180386 -0.020549009 -0.025068928 0.005166413 -0.08767482 0.009152856 0.009111369 -0.104063824 -0.06460729 -0.004168525 0.043932114 0.03719213 -0.19448215 -0.102558315 0.03049132 -0.050816864 -0.12586662 0.07215961 0.095462285 0.18285619 0.1304733 0.15919481 0.09651878 -0.12703227 -0.0056498745 -0.050733663 0.10036025 -0.12126473 -0.005238713 -0.064856894 0.02000469 -0.044531543 0.004580511 0.14728995 0.038403895 -0.02691625 -0.08053356 0.028026953 -0.070496455 -0.031929057 0.06025486 -0.00608742 0.018525213 0.09774856 -0.054602254 0.047911104 0.008337522 0.08439759 -0.16873029 0.14820093 -0.08263591 0.12909105 0.1557648 -0.05881649 -0.051744115 0.058707684 0.09194656 0.11410596 0.17329459 -0.08594485 -0.07921534 -0.095300525 -0.05099485 0.0056020287 -0.018883746 0.18182804 0.08556935 0.13543247 0.070960015 -0.005540788 0.0056123626 -0.03098659 0.0586237 0.011187561 0.119585745 0.1423795 0.09098193 0.06889766 0.046336647 -0.068441436 -0.09320271 0.036595065 0.084749624 -0.039771985 -0.08591054 -0.10894736 -0.0683293 -0.032237392 -0.107706346 -0.02881947 0.03415128 0.1547584 0.114513814 0.05927061 -0.16166937 -0.07848032 -0.07581649 0.036363166 -0.020404747 -0.061495632 -0.13810724 0.11237388 -0.0415826 -0.10844254 -0.13289863 -0.1216959 0.072089724 0.19370759 -0.0947796 -0.032778513 -0.10413452 -0.09952195 -0.017570285 -0.060996123 -0.07068203 -0.11095091 0.06517975 -0.1036179 0.044793148 0.119722605 0.034752723 -0.02217318 0.16111961 -0.1997128 -0.043867823 0.012348186 -0.10877098 -0.099145345 0.013723179 -0.15597735 0.07249319 -0.06284938 0.09377743 -0.022827793 0.018908326 -0.10891669 -0.115889154 -0.16034825 0.05914994 -0.07365289 -0.0021043406 0.02319873 0.11225577 0.11255667 -0.010639977 -0.092882864 -0.004183804 -0.10003417 0.015577949 0.07729873 -0.031693395 0.10550838 0.068049096 0.09977936 0.16458656 -0.060896963 -0.18754566 0.09304027 -0.055525865 0.17067891 0.12279449 0.020133795 -0.08271365 0.03483812 -0.08402087 0.047219895 0.10522479 0.0016099134 -0.09836904 -0.035832718 0.108109236 0.009199369 -0.10773102 -0.1130927 -0.050076105 -0.069386914 0.078184195 -0.052085705 0.009862995 -0.022259058 0.10416013 -0.03517449 -0.08070406 -0.10633472 -0.1651611 0.047541346 0.15096739 0.16583423 -0.095568046 0.17026184 -0.022256497 -0.1271871 0.045475576 0.07461417 -0.019157637 -0.029888496 0.10889683 -0.058115687 0.09156879 -0.025474856 -0.06028707 -0.14795694 0.14869653 -0.069056325 0.005386881 -0.030503083 -0.0056862906 -0.07037316 -0.035463665 -0.104988396 0.056943517 -0.0027811693 -0.024527736 -0.062342923 -0.0020046344 0.083850406 0.0789073 0.015318361 0.11144786 0.104160585 0.08041772 -0.052034415 -0.14495677 0.024129352 -0.021828428 -0.09139826 0.0649282 -0.10583343 -0.105330564 -0.12072357 -0.1767331 -0.04917271 -0.06362971 -0.04972847 -0.026494876 0.06603294 0.062170606 -0.049837228 0.08934256 0.004498694 -0.0437129 -0.02469787 0.15732554 -0.007741082 0.031120298 -0.007580059 0.06595548 0.018030114 0.109320275 0.15053254 0.03626261 0.11995764 0.028508363 0.0146568185 -0.05435087 0.13149917 -0.098877415 0.11424454 -0.004005266 -0.02080957 0.16282605 0.069303624 0.001577543 0.012995276 -0.040566172 0.05571282 -0.08153808 0.087128624 0.14920378 0.067916 0.08457983 0.110959746 -0.027582882 0.03879955 -0.057640847 -0.19287774 -0.04944507 -0.0011000013 0.14847584 0.011593926 -0.10469216 0.008707619 0.034237854 0.08802217 -0.107548475 0.022057422 -0.07178541 0.07115426 0.036395077 0.1540473 0.11073704 0.08874633 0.052585274 0.022130564 -0.18850288 -0.11221 -0.03295533 -0.0826078 0.022221176 -0.015479599 -0.067492805 -0.06972065 0.19673565 0.016469441 0.18871008 -0.13871574 -0.04564888 0.007894288 0.098329745 0.100492015 0.099502884 -0.021393457 0.008287699 0.14513777 0.015424219 -0.065582864 0.0040024403 0.17262845 -0.097805806 -0.0024142647 0.09354482 0.018413147 -0.060960453 0.08063599 -0.16407645 0.10273625 0.11084852 -0.1361893 -0.13236442 -0.04500112 0.049405906 0.06521616 -0.18824612 0.16440867 0.084961 0.041362114 0.0322346 -0.039361708 0.090929255 -0.07712087 0.049244307 -0.1394233 -0.0661727 0.018445432 0.027730731 -0.04657639 -0.0071335547 -0.04728399 -0.062937155 -0.13995962 0.036951773 -0.046869244 0.10327277 -0.006473142 0.0609069 -0.16412675 -0.010310424 -0.080930434 0.11609631 0.066530876 0.10454327 0.06253798 0.036253452 0.021544063 -0.0596673 0.015617077 0.09279978 -0.009879177 -0.0025065981 -0.058277335 0.056554962 0.05914251 -0.042431936 0.17130573 -0.014998174 -0.1303343 -0.044436436 -0.12847017 -0.006083738 -0.08930596 -0.04531598 -0.006116487 0.03835176 -0.029516596 -0.0017690143 0.15482606 -0.022802362 0.11415698 0.13918549 -0.12773079 -0.12221712 -0.19701771 0.004927806 0.026449798 0.018670728 0.05560366 -0.12840983 -0.18195249 -0.117914215 0.0057794703 -0.06364206 0.060394105 -0.07906013 0.03734541 0.17943521 0.08961602 0.14505641 0.034574803 0.018418634 -0.13178478 0.021904528 0.08713012 0.047357213 0.026372109 -0.056015838 0.014792833 -0.0701026 0.036258537 -0.16347456 -0.06690132 -0.0973868 0.13128023 0.07934595 -0.09889297 -0.16887309 -0.040368304 -0.07466382 -0.13675526 0.115611866 0.10083783 0.029381538 -0.060705822 -0.07510667 0.02491358 0.041464012 -0.018224472 0.04374231 0.11422371 0.004809301 0.037200697 0.026760567 0.105833724 -0.015005805 0.15744124 -0.07472121 -0.054240603 0.043545194 -0.020791931 0.014862266 0.03302867 0.021643944 -0.07534654 0.083798856 -0.03359786 -0.0015382549 -0.07033648 -0.006904734 -0.029383136 -0.09284803 0.0607311 0.037639137 0.04794225 0.07539787 -0.15025786 -0.029913506 0.054960575 -0.016906802 0.078367695 0.12633665 -0.1299391 -0.09453426 0.050571114 0.08592888 -0.015687186 -0.053187944 -0.0018780989 -0.121892765 0.060399592 -0.11130243 -0.17042376 0.007948635 -0.06432766 0.14213575 0.16437481 -0.019127842 0.06729153 0.06802324 0.03595684 -0.03364139 -0.019324318 0.13279796 0.058711696 -0.113560796 0.05380873 0.19570678 -0.076858155 0.1691402 0.084423624 -0.0056859585 -0.062065918 0.022010585 -0.022219969 0.091439895 -0.19882748 0.18340036 -0.1740709 -0.025369821 0.042176124 -0.13172607 -0.18161951 -0.09777104 -0.10219133 0.0016744022 -0.073743396 -0.05614219 -0.06493911 0.10919898 -0.15354775 -0.04546281 -0.19140299 -0.016937017 -0.0218048 -0.016473534 0.114851944 -0.09976419 -0.04203873 -0.023191141 -0.06634161 0.009370509 -0.14554918 -0.19428477 -0.008898194 0.1687603 -0.038303163 0.1062384 0.10309925 0.006909133 0.039294966 0.11255784 -0.099699005 -0.16201203 0.08226078 0.035181146 -0.011638912 0.08061421 0.043395396 0.1477248 -0.009777925 0.056898594 -0.050334007 0.07824476 0.070279226 0.012911617 -0.100692384 -0.12915626 -0.15484665 -0.18925741 -0.003969012 0.012515533 -0.1140516 0.01696614 0.05338202 0.0207731 0.07301022 0.14781258 0.08967508 0.02968858 -0.10544991 -0.06830575 0.16910003 -0.09305718 -0.19398926 -0.007875077 -0.1030841 -0.056376725 0.0379017 0.011171308 -0.024907114 -0.08294319 -0.13405035 0.14534903 -0.047138497 0.0028813889 -0.12186042 0.13533038 0.036226958 -0.14560542 0.016865447 -0.048460033 -0.09521987 -0.102700114 0.057611007 0.03218035 0.047077905 0.034748305 0.039747633 0.08772965 0.067259476 -0.0064703724 0.14259537 0.07609774 -0.009745486 -0.0081017455 0.024883691 -0.0849156 -0.046465185 -0.08204462 -0.16094665 -0.07434755 0.050272405 -0.15277253 -0.06243524 0.1244702 0.07473693 -0.15906739 0.06659793 -0.058650453 -0.06337132 -0.048285283 0.18716821 0.08548609 -0.15653981 -0.16674298 -0.1445269 0.053763814 -0.050785612 -0.08005115 0.08058371 0.012328549 -0.18476199 -0.18072096 -0.0026123866 0.08340513 0.08707715 0.014696625 -0.07634013 -0.08817189 0.08625727 -0.12427806 -0.0772688 -0.1244416 0.04113002 -0.10190302 -0.06436225 -0.03203311 0.11983404 0.067562215 0.021057159 -0.049806833 0.084519796 0.16955237 -0.1240495 -0.03567095 -0.025954697 0.1402926 -0.11475898 -0.0059669367 -0.13222659 -0.039954018 -0.005503354 -0.029889328 -0.072254546 0.00022689175 -0.0037280675 0.16883636 0.1006794 0.04980704 0.008056428 0.19370477 0.041148018 -0.0335222 -0.08011758 -0.06487343 0.030746793 -0.16476327 0.120105855 -0.12697093 0.11330586 -0.08905222 -0.083252974 -0.028443193 -0.004531408 -0.018146195 0.019742271 0.113058425 -0.08106322 0.072890595 0.004363717 -0.036488187 -0.070691705 -0.07412043 0.10603656 -0.03858529 -0.02448515 0.14270362 0.14148796 0.0632016 -0.0016868925 0.1814626 0.004877501 0.063475154 -0.099356286 -0.12615429 0.05682203 -0.13836345 -0.10559528 -0.084418416 -0.026705727 0.102952324 -0.09901219 -0.0769821 -0.039919943 -0.19676223 0.016565137 0.037375893 -0.057071764 0.0010950598 0.033514842 -0.18143575 -0.07601853 0.087574564 0.073668115 -0.088241786 -0.06421186 0.024168774 0.02283374 0.12550662 0.059789386 0.06660039 -0.11568226 -0.0050991415 0.07107748 -0.03170528 -0.03636266 0.11145204 -0.10673916 0.050100863 -0.10977969 0.04381567 0.06611748 0.18654254 0.033411965 0.092886716 -0.02205783 0.051474895 -0.0030124844 0.038584415 -0.073211074 0.049532693 0.008998962 -0.031268474 -0.18778874 0.09738463 -0.0005804804 -0.015359907 -0.054700222 0.04177616 0.07563652 -0.029289374 -0.0657093 0.012722722 -0.1282836 0.09340449 -0.1154414 -0.100354016 -0.1582903 0.05070584 -0.14670157 0.13321833 -0.008650925 -0.047841426 0.03343654 -0.057813805 -0.03538939 -0.04626358 0.14833687 -0.0018843871 0.058560695 -0.01929283 -0.08171382 -0.10866512 0.08806797 0.01327724 0.102216594 0.031527333 0.121999465 -0.010314968 0.13916178 0.09204873 0.089968316 -0.04974402 0.07084619 0.108911514 0.051328547 -0.061296325 -0.0058391853 -0.1867864 -0.047548693 0.021698616 0.07608379 -0.073141776 -0.018993644 -0.06578263 -0.1231543 0.007787434 0.11509223 -0.011221739 0.028701503 0.040930834 -0.13045852 0.048259486 0.19277722 0.15724431 -0.00666446 -0.054798484 -0.029655788 0.018255882 -0.07376608 -0.058649924 -0.10432907 0.18619168 -0.08022759 0.11016717 -0.02453119 0.08527296 -0.036568888 0.04533 -0.055647444 0.08818203 0.07081197 0.0738977 0.070669785 -0.11917674 0.1323319 0.11870485 -0.10617763 -0.010728394 -0.1819811 -0.027352735 -0.14205419 0.19442329 -0.010562132 0.08773043 0.10098054 0.08510287 -0.044359334 -0.13472582 -0.0006014386 -0.13402355 -0.02798977 0.056861527 0.04500656 0.047306113 0.1396688 0.18273346 0.09951976 0.036029737 0.019514529 0.015796462 0.05114022 0.16689932 0.016348658 -0.12208445 0.13531372 0.17364454 -0.03161482 -0.0677063 -0.05748548 0.038002633 -0.033755682 -0.103407644 -5.11318e-05 0.054519147 0.05045667 0.017985111 0.033727948 0.03637343 -0.099915355 0.08053794 -0.037513886 0.042918924 0.12967022 -0.13464281 -0.027885405 0.07621221 0.02450804 0.10959493 -0.09823395 0.0034183234 -0.0030065933 0.10363753 0.08455851 0.1560107 0.089388974 -0.10925182 0.124577515 0.003895085 0.15600573 -0.09874789 0.06461819 0.06569085 0.065295465 0.062430054 -0.023506759 -0.0841338 -0.1190985 0.035460606 0.011572071 0.033087574 0.13736533 -0.048659425 -0.10369053 0.13176885 0.17161599 -0.023445992 -0.042209726 0.007353537 -0.028342683 -0.016571632 -0.07383331 0.04993328 0.08751832 0.04183285 0.009181982 0.13163832 -0.08811846 0.05638067 0.020217447 0.07236776 -0.093117885 0.11580869 -0.014109576 0.14574553 -0.10531086 -0.08341127 0.163206 0.12747605 -0.1916247 0.17554738 0.14746769 -0.070504114 0.0060611935 0.017379304 0.01254517 -0.08080595 0.09058328 -0.043673813 0.0048907036 0.09193473 -0.14650321 -0.030855376 -0.11803454 0.15543883 -0.083465435 0.15699731 0.099762656 -0.11969022 -0.060753834 -0.13842721 0.049039926 0.121162295 0.022082737 0.008989864 -0.038031384 -0.022829099 -0.044747826 0.040768765 -0.08424878 0.007003402 -0.008979716 0.119115785 -0.011557414 0.075371936 -0.00628305 -0.01665984 0.18320195 -0.07897792 0.059072208 -0.04834063 0.08061217 -0.004260203 0.06664658 0.07601799 -0.04706847 0.033400286 0.15134446 -0.074395634 -0.061685223 0.08197777 0.10014858 -0.14911063 -0.10098553 -0.09515061 -0.05931242 0.035189826 0.0183999 -0.02035172 -0.0046615596 -0.05668027 0.09430327 -0.08398408 0.01897507 0.12544598 0.02716363 -0.040522963 -0.059057064 -0.06020034 -0.19727354 -0.13821751 0.0109306155 -0.011613469 0.14424248 -0.027471105 0.15054913 -0.16074754 -0.06168872 -0.021778774 0.065283105 -0.027359933 0.020099988 -0.048120957 -0.16799305 0.12134726 0.007346383 -0.0962876 -0.17875385 0.0023817937 -0.018966388 0.12766036 0.0010798417 -0.04781452 0.01586743 0.043724786 0.0749154 -0.17265229 0.04310627 0.010255231 -0.043316804 0.07201385 0.1353814 -0.11749671 0.014446946 0.036125258 0.07426176 -0.05209131 -0.020216439 -0.021877855 0.028495485 -0.052783575 0.17806987 0.05821197 0.011080164 0.017647551 0.008769984 -0.051631946 -0.04938973 -0.08542769 0.060284894 0.07551168 -0.049505662 0.09811424 0.013704874 0.061250705 -0.12781705 0.074945256 0.01796891 0.048404735 -0.15124488 0.10417086 -0.089009665 -0.09141382 0.12661694 0.06592309 0.110423915 0.0053717117 -0.05216787 0.025073508 -0.038002085 0.16707979 -0.08046787 0.034452964 0.025834529 0.08887396 0.050088722 0.014475769 0.037978124 0.085933454 0.017952105 0.017848797 -0.07891098 -0.07886365 -0.072925754 0.09300361 0.07503445 -0.033994608 -0.0052396324 -0.046244275 0.03428533 0.010550254 -0.02859878 0.025555884 0.03365543 -0.0435991 0.06622811 0.07931784 -0.09787172 0.031846043 0.05607306 0.05176257 0.01974318 0.1888189 0.007551744 -0.16056614 -0.088604525 -0.05910156 0.0118783405 -0.0027895232 -0.012473299 -0.050597455 -0.044343714 -0.0067477757 -0.10359343 0.13398479 -0.050386336 0.1679112 0.016708544 -0.084300615 -0.030605221 0.024244355 -0.03739747 -0.03587496 -0.15403709 -0.046896257 0.004319589 -0.19809517 0.093139954 -0.06671737 -0.09862936 -0.13384713 0.0019293217 0.1541999 0.083512366 -0.04869355 -0.03615823 0.056679677 -0.0036603957 -0.16981159 0.08564967 -0.14999199 -0.07116999 -0.025913123 0.026586002 -0.037158307 0.05286486 0.023563711 -0.18885432 0.00016159353 -0.070391215 0.06954223 -0.07461553 0.15464121 0.10375523 0.15020254 -0.116959825 0.06849266 0.14462887 -0.041210778 -0.08083529 -0.013204241 0.11493733 -0.14553167 -0.1201814 0.068878025 -0.08454871 0.0009851852 -0.18167476 -0.094364055 -0.12976258 -0.06429907 -0.012642853 0.02312038 0.074479714 0.074676536 -0.08999976 -0.0007153619 0.07480451 0.021998582 -0.16483971 0.063111655 0.032797813 -0.0063808323 0.09215324 0.15761682 0.08629477 0.16994771 0.08525926 -0.10451861 -0.08381464 -0.0042739916 -0.063796304 -0.0068436153 -0.043592583 -0.112701096 0.07022339 -0.07247602 0.0140176555 0.07377477 -0.06563817 -0.029424703 -0.08018114 -0.11281698 -0.077630766 -0.051336806 -0.12694976 -0.009872567 0.016999273 -0.05805791 -0.0026709673 -0.03776158 0.05747072 -0.009346106 0.014694924 -0.12195259 0.043211006 0.050742924 0.1639574 -0.017512118 0.024711363 0.06558345 0.03990821 0.082218215 -0.045145605 -0.11049583 -0.0948123 -0.1387544 -0.07035237 -0.0052784686 0.040782172 -0.17412473 0.13590512 0.03826195 -0.06159515 -0.075165145 0.056506883 0.10294348 -0.11213913 -0.02871785 -0.10214937 -0.07380358 0.15748271 -0.024541527 -0.05070914 -0.018967472 -0.010104754 -0.097917326 0.11706871 -0.03187932 -0.10820853 -0.049180795 -0.077248774 0.03555621 -0.19078934 0.09759161 0.014103024 0.09213431 -0.021504197 0.10270281 -0.05564151 0.08265343 0.02441514 -0.1814814 0.19251384 0.055227675 -0.12757786 -0.022687616 0.05949713 0.16662772 -0.06593513 -0.0009957947 -0.033509284 0.023008402 0.13587552 0.0055114753 -0.0339526 0.016004605 0.05312265 -0.028738055 -0.05280436 -0.10590344 0.10180613 0.11715873 -0.059788186 -0.040153895 -0.11265738 0.005160883 0.16885471 -0.06664445 -0.08509379 0.11799469 0.080664806 -0.109722614 0.17281751 0.026936127 -0.087523594 0.023639726 -0.046329625 0.036873877 -0.16430591 -0.010991814 0.06917396 0.020944364 -0.100705996 -0.101935424 0.012256481 -0.013751008 -0.012538964 -0.06557642 -0.048781257 -0.027529413 0.034819283 -0.057064515 -0.17454283 0.0488621 -0.01704984 0.08025037 0.06474706 0.08782143 -0.008157365 0.04533356 0.0696343 -0.05063963 0.035797615 -0.0838039 0.050393064 -0.05592912 -0.033193428 -0.046875436 -0.037119262 0.10418191 0.166239 -0.09875217 0.05740685 -0.11784513 0.1742943 -0.07145791 0.09331376 0.00733267 -0.13802269 0.022525156 0.19630833 -0.009184043 0.045490183 -0.11167788 0.07255173 0.14950146 -0.0009943797 0.053512897 -0.034162924 -0.043894544 -0.010076535 0.13551025 0.05133586 -0.13863145 0.027631743 -0.09736898 -0.07901065 0.013024581 -0.00028534737 0.019081255 -0.058233734 0.16210225 -0.04405476 -0.075642526 -0.056993682 0.021642817 0.04144202 -0.0016444748 -0.028171057 -0.13654064 0.03247282 -0.13632992 0.037112102 -0.010982034 0.08310353 -0.12418554 0.013268693 -0.0017752734 -0.08528765 0.121497035 0.06946178 0.017092623 0.026273979 0.14478666 0.05606664 0.09217375 0.07231422 0.041415993 -0.04561017 0.035336982 0.02204623 0.014159326 -0.1580219 -0.05795568 -0.12173698 0.021273293 0.041463602 -0.03836478 -0.024801629 0.008621844 0.032678448 -0.14972876 -0.026188293 0.06020611 -0.05135802 -0.19924985 -0.11375319 -0.017588867 -0.16418563 -0.060317487 0.030719256 0.084725596 -0.002472558 -0.011908672 0.10804607 -0.08685947 0.08296016 0.013540811 0.04310178 0.011224188 0.050755706 -0.08716547 0.17054962 0.1006583 -0.012233733 -0.1552855 -0.1309524 0.048004743 0.044751044 0.060912903 0.030143455 -0.003266443 0.03729105 0.0062698387 0.09706315 0.0015850846 -0.005502532 -0.053661227 0.093514696 0.07926478 0.11205991 0.12831835 -0.13977401 -0.13709168 0.05109275 -0.1468514 -0.12777281 0.11060362 -0.088595614 -0.051019914 0.027540013 0.019359825 0.036793422 -0.053432524 -0.06874327 -0.1631012 0.056848224 0.10724675 0.08686402 0.12266596 -0.14608033 -0.032949183 0.17452823 0.117790714 0.173848 -0.09272665 -0.02609923 0.07887112 0.034304693 -0.08973853 0.11826543 -0.017970596 0.06069277 0.11474227 -0.052602917 0.0074035497 -0.0852372 -0.17740618 0.025764031 0.08077895 -0.028973836 -0.06237603 -0.06540593 0.05691713 0.016688839 -0.046780795 0.11639153 -0.0615313 -0.18577151 0.057376117 0.057953604 0.0076828073 0.073183574 0.13171797 0.056372233 0.019972486 -0.14006385 -0.10568392 0.059572216 -0.090021424 -0.03079697 0.042353712 -0.10101644 0.043922782 -0.12629484 -0.035136297 0.059291948 -0.0037447028 0.054366123 -0.06456943 0.02680595 0.073831365 0.10100011 -0.10524086 -0.18530588 -0.1515398 0.06665157 -0.045252528 0.0061864676 -0.075580396 0.079919845 0.062309366 -0.0482666 0.03712553 0.15844207 0.07474962 -0.054807283 -0.038405728 0.0058904313 0.033684075 -0.112232246 0.007414501 0.09860235 0.03640355 -0.09355658 -0.063700646 -0.04824111 -0.025853619 -0.043010447 -0.07619836 -0.18216279 0.025917945 -0.15972927 -0.058828514 0.16430409 -0.096395515 -0.0620173 0.053298242 -0.09896671 -0.04271351 0.0040499475 -0.08992124 0.14156349 -0.09563382 -0.019552752 0.03012449 0.040873673 -0.17301503 -0.089581646 -0.04548947 0.17141001 -0.038852364 -0.072546974 -0.07485719 0.06693916 -0.17589466 -0.010722083 -0.072558455 0.012591608 0.1689021 0.1263472 -0.006413355 0.13533291 -0.0702412 0.15258098 -0.03733193 0.047751993 -0.15583564 0.06963809 -0.08502542 -0.11943328 0.014368567 0.07287014 0.020664854 -0.04344036 -0.111024104 0.023657978 0.0039539044 -0.075933605 0.062950484 0.007179799 -0.031004732 0.032369945 -0.15628998 -0.029082647 0.021502914 -0.12060392 -0.041865084 -0.0069230953 -0.086998366 0.19327608 0.14868371 -0.004667775 0.036742613 -0.08110636 -0.026405517 0.07963608 0.063141696 0.052758068 0.046631895 0.052786916 -0.06047679 0.01103165 -0.04449157 -0.08596406 -0.010346997 -0.013028174 0.09655743 -0.11156856 0.09937344 -0.14489993 0.13776284 -0.1320213 -0.16345358 -0.18887027 0.12067207 -0.01420739 0.092460215 0.0015045375 0.055375714 -0.06643649 -0.1411005 0.0065680942 -0.14276865 0.07615561 0.16508341 0.109214835 0.0043112333 -0.09779556 -0.01280241 -0.044923123 0.1523448 0.07575955 0.06637844 -0.1180103 -0.08602119 -0.023025962 0.070159286 0.092582956 0.059948273 0.13198496 -0.19658796 0.028913742 0.17781232 0.1147994 0.038369272 0.035059866 -0.027686924 -0.029926231 0.0014543232 -0.021620715 0.12283031 -0.0017566116 0.008021662 -0.10199957 0.0238758 0.004452488 0.012821418 -0.01621464 0.13801457 0.007200688 -0.040158622 -0.07793561 0.14181395 -0.049952418 0.13438228 -0.030259026 -0.11156114 0.1544363 0.045710746 0.15684417 0.032584894 -0.05162814 0.042941745 -0.04119108 -0.16460562 0.073269755 0.013961851 0.088278405 0.023670971 0.046834867 -0.060994692 -0.15101804 -0.15441634 0.015312693 0.07028011 0.12055371 -0.14778021 -0.13060664 0.055174243 -0.07547082 -0.017675964 0.0073615923 0.08975259 0.07798165 -0.10901785 0.034471944 -0.013421069 -0.01280683 -0.061191835 -0.016537523 -0.16711766 0.18483232 0.13815041 -0.0470924 0.033595745 -0.028300056 0.16168243 -0.0008189105 0.13594083 0.016901206 0.17086297 0.002356874 -0.017121827 -0.1984047 -0.1371244 0.1990916 0.16389266 0.11133238 0.11733329 -0.016507102 0.036936928 -0.08374795 -0.15181997 0.061915804 -0.16093984 0.1250677 0.042317163 -0.007838607 0.0033522658 0.05714786 -0.18047655 -0.073548235 -0.034401674 0.008888339 0.012085677 -0.19378257 0.11322309 -0.017044315 -0.1990155 -0.17583284 -0.07984663 0.008003111 -0.049337383 -0.027183607 0.09057693 0.09432029 0.15621714 0.07283276 0.053198516 -0.013441357 0.0022196572 0.09672625 0.024303002 0.1961835 0.059893426 -0.02133492 0.0671206 -0.17186664 0.09297051 -0.006767676 -0.038205914 -0.041947298 0.021847842 -0.019237192 0.02933763 0.12616603 -0.063451305 0.022805229 -0.17426932 -0.059130635 -0.0021292313 0.17146634 0.016147442 0.0038566985 0.037281513 -0.0106950775 -0.01257132 -0.13094819 0.004870704 -0.025654763 0.074441895 -0.031997144 -0.14958507 -0.16198692 -0.07892793 -0.058410842 -0.038125608 -0.036983605 -0.016724057 -0.11901229 0.08175477 0.029106451 0.06375965 0.13269721 -0.05115312 -0.18119323 -0.045983925 -0.17199317 0.054241966 -0.036170557 0.18693124 0.095363945 0.0023944925 -0.016914193 -0.0039618537 -0.052598324 0.14671834 0.07114484 -0.085540704 -0.016752914 0.06289675 -0.07908263 0.0065533156 -0.09109985 -0.09844961 -0.1008678 -0.051176812 -0.08360702 0.08449084 -0.013671375 0.08251022 -0.00876715 -0.057422955 0.0018726205 -0.05005929 0.020987535 0.12769802 -0.015343635 -0.023782393 0.080971055 0.10775758 0.17729346 0.0796236 -0.032047212 0.11141383 0.107361935 0.09038695 -0.0847854 -0.07062957 -0.0053794063 -0.021666825 -0.03437408 -0.118937016 -0.031111663 0.032241773 -0.05427984 0.0833166 0.024835108 0.07864804 0.1391278 0.004489424 0.19738297 0.050777704 -0.032826018 0.010789878 -0.1871196 -0.056379277 0.023613784 0.08737331 -0.14624093 0.050264526 -0.044692818 0.071689956 -0.0007895331 0.18196437 0.0058719506 0.115690134 -0.04754907 0.11781492 0.07463528 -0.031995144 0.00022940066 0.050828803 -0.06902803 -0.19095612 -0.1798912 0.014879246 -0.107829034 0.06237265 -0.018910382 -0.05288015 -0.18091635 -0.096544 -0.15525913 -0.074747376 0.034886077 0.034648936 -0.015713315 0.068077944 -0.0125676785 -0.19519722 0.057193052 0.00020769564 -0.027802587 -0.083790734 0.01289997 -0.18850015 -0.09463852 -0.012172977 -0.041431554 0.1346222 0.04832561 0.028909767 -0.085695185 0.13429043 0.01785861 0.044488203 0.021243794 0.01732401 0.023817847 0.01015886 -0.00821509 0.17029987 0.090948485 -0.13885973 0.061958075 0.05387522 0.065531366 0.08561547 -0.08744551 -0.047992885 0.039187737 0.09476739 -0.040259644 -0.071690105 -0.039221805 -0.0044525005 -0.060070343 0.03423966 -0.14385045 0.039487403 0.0011950809 -0.11507559 -0.15511261 0.0043954696 -0.003864474 -0.15248895 -0.081286155 0.15390554 -0.11958225 0.050316256 -0.030098349 -0.07330175 -0.04337466 0.045899015 -0.030045295 0.0044528088 0.16481191 -0.03646118 0.006751725 -0.014520842 -0.10983489 0.011396442 0.00054184435 -0.016153036 0.04549301 0.06778916 -0.09444475 0.117516495 -0.07436304 0.07229444 0.03636549 0.07296582 0.12066249 0.09279769 0.056563266 0.1233992 -0.14872614 0.029174795 0.05493812 0.16051136 0.09462591 -0.028257776 0.052150585 0.10290953 -0.068676226 0.14110701 -0.00539255 0.1475086 -0.015132541 -0.004499351 -0.15709458 0.07834022 -0.10610902 0.13010114 0.088245 0.036745287 0.115687504 0.15325168 -0.14371733 -0.1542078 -0.023980273 0.17328982 -0.13406974 -0.090047605 -0.038390085 -0.08929425 -0.18455753 -0.031224271 0.061978217 0.09353743 0.1523612 -0.17342024 -0.033398807 -0.034100402 -0.004727754 0.030453382 0.08451034 0.08233442 0.16253234 -0.04944832 0.06296296 -0.022033487 0.0064519965 0.05908664 -0.09927101 -0.028017074 0.018366786 -0.06034215 0.042669233 -0.01977813 0.13819416 0.08704596 0.11460694 -0.003962969 -0.025393724 0.052992202 -0.105033614 0.13543515 -0.055267166 0.080133304 0.02236357 -0.018665252 -0.021790681 -0.15304495 -0.10058277 0.017202795 -0.088814154 -0.014519433 0.15657486 -0.15352231 -0.07338197 -0.09209749 0.021851515 -0.06913026 0.08696755 -0.09804067 -0.15924585 0.07482234 0.17390399 -0.06148823 0.062465966 -0.14876841 -0.018558634 -0.17362146 0.08173034 -0.105024315 0.17120536 -0.027258549 0.07264837 -0.062422782 0.013576693 0.05597849 0.08150508 -0.004093165 0.065257125 -0.18776089 0.035350528 -0.14595707 -0.18421543 0.13148117 0.10072841 -0.0070587504 -0.061150234 -0.013391956 -0.045355123 -0.16189095 -0.03658859 0.0832629 0.05445214 0.16453844 -0.006398482 -0.07370841 -0.08021914 0.04131159 -0.12979929 -0.0782436 0.051172234 -0.095712446 -0.11084866 0.060779404 -0.12593386 -4.490843e-05 -0.0024640264 -0.08497066 0.026457096 0.16630402 -0.09036796 -0.012047715 -0.0052835806 -0.039828174 -0.11807447 0.013455534 -0.01924566 -0.14994746 0.12485029 -0.032154217 0.19798492 0.030948145 0.018230265 -0.029321937 0.053384747 0.104815595 -0.12840097 0.097928025 -0.013484034 0.038983453 0.11712863 0.14487065 0.12126156 0.07933943 -0.022989197 -0.0004462015 -0.013319095 -0.063506484 0.036503587 -0.09781997 0.037633702 -0.02138186 -0.019706307 -0.08294829 -0.1381057 -0.10358973 -0.0061096763 -0.00988583 0.07543076 0.0388322 0.033299487 -0.048526373 -0.0912194 -0.014940429 0.18045917 0.108672895 -0.07392297 0.159906 0.056302693 -0.036638793 -0.016865943 -0.03461559 0.01073234 0.06915165 0.013558638 0.10060842 0.00312011 -0.052159376 0.029753441 0.030385965 -0.08727966 -0.020193608 -0.1490102 -0.13386956 -0.014223156 0.006058975 -0.093421176 -0.015877612 -0.044801474 -0.0404512 0.12345042 0.040651444 -0.09902059 0.061763503 -0.009671285 0.112699054 0.18454303 -0.023012338 0.08487523 0.10661006 -0.023357643 0.00011568476 -0.027001891 0.051310774 0.07375858 -0.10745608 0.053359974 0.03315169 0.06501625 0.030860392 0.06868852 -0.01622361 0.085642315 0.015390261 0.12344279 0.027141321 0.022002151 -0.069960535 -0.0013485019 0.14187218 0.06895176 0.058170397 0.026908172 0.07922285 0.04072627 0.038864627 -0.029105702 0.06312964 -0.19787669 -0.023423543 0.041686457 -0.06786979 0.08044688 -0.06744378 0.033481058 0.10856489 -0.05575602 0.11693817 -0.13836035 0.11452948 -0.15124871 -0.14430021 0.117095664 -0.19702141 0.093895964 0.052558538 -0.08234904 -0.027839324 0.07616272 0.095756754 0.016404813 0.06287396 0.019648988 -0.061082046 0.11226302 0.0077450774 -0.14096785 0.08337664 0.0107878065 -0.09762831 0.0048667463 -0.028029246 -0.062400382 0.08231881 0.0887175 -0.042996477 -0.027437752 0.087562144 -0.013888768 0.03378543 0.12191149 -0.003002144 0.1716717 0.05295956 0.10288092 0.0040786555 -0.072304495 -0.065621585 0.011620133 0.006606451 -0.00955998 -0.17791227 -0.054756474 -0.010761827 0.049664002 -0.036052857 -0.044120587 -0.08100097 -0.11567104 0.15614186 0.0005444234 0.01163777 0.13341905 -0.13396727 -0.08416041 -0.14243369 -0.06907673 -0.048529837 -0.018750632 0.05941794 0.031417456 0.020289369 0.11749154 0.077345304 -0.10254741 0.013056329 0.01810283 0.075454034 -0.049370807 -0.091529995 0.006119249 0.14529824 0.029964108 0.055806603 0.072312675 0.01974271 -0.018126687 -0.02028782 -0.111139394 -0.013866538 -0.019044757 0.14678328 0.04635353 0.10140488 -0.051993836 -0.052151766 -0.07691048 -0.04854713 0.028943036 -0.041521743 -0.14579749 -0.08875369 -0.11647276 0.14269684 0.09512546 -0.1608602 -0.044246476 -0.13368039 0.053702425 0.12905107 -0.007897185 0.012385996 0.01867388 0.07054599 0.06805145 -0.021334922 -0.022856468 0.011058549 0.15731446 -0.11418922 -0.042529818 0.050594706 0.18571231 0.02377412 -0.048655786 -0.071528226 0.1279653 0.104138196 0.10695529 -0.031043354 0.009637269 -0.1641753 0.106594004 -0.032894816 0.137891 -0.08211901 -0.010205294 -0.10167638 -0.06650468 -0.13778989 -0.00519894 0.0119795175 0.07072639 -0.08238873 -0.023630528 0.029318718 -0.06238178 0.055300545 -0.0026019055 -0.12311649 -0.004601031 -0.06738663 -0.04816357 -0.0058087083 -0.045573782 -0.047932766 0.032683227 -0.03222232 -0.05920859 0.109581016 -0.027185857 0.026973993 0.054038174 0.06284662 0.038037173 -0.0339867 0.025539143 -0.056063782 -0.0018523814 0.08904322 -0.111703776 0.024295216 -0.11830918 -0.13380994 0.03614451 -0.13368572 0.08187541 -0.08830139 -0.11201662 -0.076453425 0.020016996 0.014706798 0.07104237 0.059709687 -0.08335557 0.14912997 -0.05139804 -0.026821202 0.15983903 -0.08967205 0.13465537 -0.11564884 -0.026448304 -0.07280283 0.0091176545 -0.084874265 -0.0736066 0.054106664 -0.046902988 -0.11154806 -0.005021035 -0.0584681 0.019660672 0.023110867 -0.0022812893 -0.06450198 0.05632943 0.04725387 0.013838458 0.15942411 0.015803788 0.0059242686 -0.049575176 -0.039933667 -0.07622476 0.13327913 0.019895498 0.051663954 -0.04992007 -0.09578072 0.09320931 0.06601714 0.046970904 0.07361037 0.121124566 0.031783693 -0.14710274 -0.014965909 0.157857 -0.059997912 0.041110348 0.054134406 -0.099576496 -0.17743634 -0.062266182 -0.06098898 -0.17556182 0.07524835 0.057344027 -0.030576939 -0.08850267 0.022994705 -0.05449424 0.078266434 0.19737582 0.14245531 -0.06997145 0.06883218 0.092781864 -0.07111885 0.020612638 0.09720235 0.06766102 0.04466898 -0.024318209 -0.052176178 -0.030947357 -0.03588733 0.03638923 -0.029265588 0.13873932 0.036063544 0.039209727 -0.037283253 -0.04660963 -0.15092574 -0.062829904 -0.033288237 0.11895298 -0.07329706 0.022854486 0.009992338 0.035675153 -0.06374394 0.0007270674 0.018531557 0.07962817 -0.04293435 0.080712505 -0.026597684 0.09498652 -0.109973945 0.014015487 0.0053665536 -0.09852766 0.13766848 -0.12380071 -0.057798233 0.055397864 -0.04106336 -0.040083896 -0.1541133 -0.074587695 0.023137927 0.07618164 0.001598382 -0.07103791 0.029698847 -0.117615 -0.08348361 0.17677328 0.15203206 -0.08880963 -0.061674118 0.14992979 0.027421901 0.08145618 -0.02124699 0.025393505 0.052218553 -0.07916175 0.020772537 0.04738229 -0.0020279908 0.010371066 0.07428724 0.10083767 0.17386495 -0.079673655 -0.14668208 0.10271893 -0.13665979 0.011270034 0.08261222 -0.09283292 -0.021398218 -0.045209076 0.037731063 0.05112371 0.13294177 0.009255904 -0.04711106 -7.374981e-05 -0.06503584 -0.03601806 -0.14642303 -0.14598781 0.15386003 -0.043831207 -0.0842797 0.026406655 -0.018988233 0.041867778 0.04157479 0.0030465468 -0.014466368 0.01071754 0.06911921 0.035978846 0.027533138 -0.089487374 -0.04565305 0.113334455 -0.0569037 -0.08415698 -0.09319161 0.12930344 -0.04648735 -0.17894773 -0.028304135 0.039149173 -0.055447508 0.015545926 -0.04875562 -0.047237393 0.0016083727 0.12661897 -0.110350646 -0.12424111 -0.042007763 0.005973954 -0.08571605 -0.07020108 -0.13459942 0.059160173 0.024449289 0.053418428 -0.055090595 0.007422115 -0.031349704 0.04683755 -0.11475772 0.09096006 0.00070699386 0.019872392 -0.050468177 -0.11517545 -0.163423 0.13113412 0.022572426 -0.14055388 0.13798068 -0.016056014 -0.00016155583 -0.042474482 0.114811234 0.0028261982 -0.11941352 -0.04869343 0.03944596 0.00816599 -0.0068773027 0.11270984 -0.14874938 0.032999527 0.14184025 0.1026591 -4.8307378e-05 0.021067886 0.12031998 0.18610388 -0.025524035 0.13103543 0.0982414 0.052552283 0.014991111 0.026370589 -0.060256492 0.11349764 0.10079243 -0.07313801 0.07185781 0.045444734 0.14360185 0.004189882 -0.07831258 -0.031578 0.010587457 0.039464135 -0.009636672 0.10819449 0.022343239 0.04220152 0.08417241 -0.05050431 -0.113055125 0.08903038 0.015808871 -0.079909705 0.03924383 -0.13919896 -0.17508887 0.11672777 0.06277332 -0.14115094 0.16131413 -0.06756645 -0.12190663 -0.015408545 0.08496275 0.16005458 -0.032325327 0.06554859 -0.01702674 0.07491167 0.08747698 -0.11062626 0.05435243 -0.16424243 -0.09391296 0.08193108 0.051574748 0.030229405 0.010427162 -0.13920563 -0.028066983 0.18288869 -0.05483068 0.11673436 -0.0074228593 -0.11694556 0.04988198 -0.06927178 -0.01720273 -0.019626437 0.123754404 -0.054700136 -0.081973985 -0.0030875136 0.15033258 0.12818182 0.08729759 0.07124793 -0.14129089 -0.046469968 -0.014629127 0.15715706 -0.04619704 0.022636376 -0.070551366 0.09117399 -0.07645875 0.048625138 0.047045287 0.04415898 -0.14395769 0.0099349795 -0.07848473 -0.05384767 -0.038089443 0.055571776 0.046243344 0.16433047 -0.0014459963 0.013204239 0.16220734 0.19186626 0.035355967 0.095712505 0.109697305 0.074216194 -0.0846502 0.012197371 0.08528178 0.035421673 0.0022686366 0.0148377735 0.14603028 0.05917889 -0.060712215 -0.0071191676 0.1678318 0.046824194 -0.0050744764 -0.11985501 -0.12725727 -0.10795038 -0.10267555 -0.14654545 0.093027174 -0.14613256 0.018486729 0.13439201 -0.08477325 -0.10903161 -0.032738958 -0.01894906 -0.060619056 0.041734662 0.04152656 0.057141352 0.13723223 0.017116984 0.06489012 -0.099349685 0.019088445 0.09272576 -0.034949634 0.049360547 -0.0243692 -0.082318485 0.015243502 0.087681636 0.112900816 -0.11203364 0.095073014 -0.1064769 0.071422055 -0.01872014 -0.08074137 -0.05904434 -0.12739468 -0.08870758 0.06727301 -0.16005112 0.1178322 0.07491401 0.062435366 0.18030094 -0.16679178 -0.042385504 -0.078791514 -0.10995614 -0.06583444 0.14497797 -0.1572597 0.06285225 0.0035307698 -0.09842033 -0.0042555127 -0.0066715092 0.03842091 0.036913004 0.045101803 0.08245879 -0.022967169 -0.061829787 0.02729143 0.068530224 -0.0074900375 0.07483899 -0.11049948 0.0025643168 -0.09944462 -0.053953063 -0.024550045 0.08780015 -0.17478408 -0.052629948 0.019255314 0.03338303 -0.025578916 -0.017527528 0.04673772 -0.031052683 -0.07195527 0.022784181 -0.19003358 0.095183976 -0.031678926 0.07699894 -0.03534105 -0.08879184 0.08484211 0.12576051 0.18358414 0.039634068 -0.10907352 0.08241818 -0.04020032 0.0028850238 -0.05135396 -0.11600485 0.014293224 0.026521206 -0.08654105 0.112061635 0.13120145 -0.080169074 -0.023142222 0.09402349 0.10198128 -0.1099648 0.021337314 -0.15975678 0.03318741 -0.14456429 0.059621643 -0.18157716 -0.17903844 -0.0847816 -0.06997889 -0.032760624 -0.03114858 -0.10861885 0.13774678 0.09174128 -0.009213015 -0.01022103 -0.012714793 -0.1187215 -0.12501739 -0.16509524 0.104421474 0.04949281 -0.19360076 -0.094114944 0.12195002 0.12041116 -0.027399948 0.021525687 0.14210692 0.023295628 0.09210175 -0.062734105 0.15803352 -0.02532193 0.037089553 -0.00028459184 -0.088898204 0.10775967 0.047656372 -0.09795924 -0.13012221 0.078080766 -0.07486859 0.1801915 -0.052555945 -0.0031440642 0.06612163 0.07580392 0.12745748 0.0240869 -0.086668275 -0.046247553 0.19749996 0.16059671 0.035247307 0.09185681 0.13488959 -0.05138753 0.13135637 0.1713895 -0.13120991 -0.14491788 -0.055005204 -0.06280476 0.05475397 -0.018019242 -0.039874073 0.030100703 -0.11459293 -0.0723237 -0.044878226 0.0953312 0.17976587 -0.10977443 0.018540684 0.028517017 -0.049706813 0.052174658 -0.05497209 0.07032382 0.049191333 0.19262603 -0.05527547 0.030255368 -0.12331154 0.06548961 0.035450492 -0.09649774 -0.043905474 0.05379947 0.042336714 -0.098566055 0.10445433 0.06758224 0.07277876 -0.06252267 -0.057737667 -0.039486114 0.14407848 0.0016563854 0.0041704928 -0.009454414 -0.13179094 -0.021123432 0.091103934 0.048714276 0.13235831 -0.11709914 -0.047223937 -0.020173704 0.05143845 0.055494357 0.045555275 -0.07971648 0.017009942 0.15550238 0.0008709607 0.07303877 -0.15940359 0.035723448 0.09427686 0.08612615 0.10358679 0.14165896 0.1819181 0.18975364 0.07149682 0.008436444 -0.048141714 0.08313978 -0.1397002 -0.13580637 0.12997507 0.12359297 -0.060194474 0.06994618 0.011347347 0.15206844 0.1131385 0.15633404 -0.08895004 0.11405063 -0.06246255 -0.033959612 0.019035572 0.19313793 -0.03790164 0.07494337 0.105513945 -0.024282739 -0.13652615 -0.021714594 -0.011928905 -0.0716741 0.05611516 -0.0964175 0.06450196 0.08995368 0.16056748 0.017753398 -0.06617509 0.0040987 0.16143237 -0.048831634 -0.05460288 0.09404921 0.08000816 0.014975726 -0.0662311 0.031071126 -0.06735643 0.048324917 -0.04814511 0.04900911 -0.07330368 0.03189921 -0.008362733 0.12199684 -0.028786698 0.11358392 -0.11640649 -0.02426455 -0.030163739 0.003490376 0.099501744 0.060756486 -0.102234244 -0.1362866 -0.017279623 0.102146246 -0.08464273 0.09101974 -0.07702711 -0.019906616 0.17219396 -0.11209035 0.057932056 -0.023886811 0.074621804 0.004707317 0.020158725 -0.010934169 -0.096015885 0.0009789873 0.031192904 0.15548939 -0.17911802 0.005804028 0.060683012 -0.071244255 -0.015866697 -0.037213936 -0.022878597 0.10030585 0.10822971 0.01724844 -0.003980285 -0.043147866 -0.13839224 -0.15693228 -0.102032565 0.09181217 -0.0967217 -0.05509132 0.15230773 -0.09072553 -0.017399143 -0.08537754 0.005460758 0.00023412232 -0.080037445 0.029812625 -0.025474384 0.0049116495 0.06550198 0.19966467 0.030753568 -0.07133268 -0.0658024 0.18966807 -0.099578284 -0.011164919 0.07547359 0.004695781 0.057846572 -0.05057646 -0.074254744 0.028108686 0.11625671 -0.053304818 -0.07124024 -0.101149336 0.004796843 -0.060954172 0.14670871 -0.0843549 0.05938175 0.18468349 0.15867768 0.1501294 -0.08978691 -0.08431996 -0.18353464 0.023887064 -0.050428756 0.06532972 -0.062288757 -0.055263 -0.1270582 0.047428817 0.067024216 -0.18704501 0.07612625 -0.03028568 0.13865279 -0.033653926 -0.044598795 -0.05452427 -0.116945304 0.039407294 0.027220313 -0.08592244 -0.12512903 0.07011791 -0.07871498 0.005372901 0.06967252 -0.026528036 -0.0062764385 0.031749345 0.092154846 -0.06201116 -0.18998502 0.026947295 -0.16847566 -0.00020180075 0.002488586 -0.07483321 -0.059512254 -0.0044562137 -0.12499183 -0.022561358 -0.1655172 -0.0070497105 0.11873233 0.04616143 0.066215195 -0.009576904 0.17481421 -0.07579902 -0.050021913 -0.009186513 -0.07428985 0.04405152 0.006309196 0.014108202 0.15238431 -0.12679516 0.031028396 0.07240908 -0.009120988 -0.14944439 0.033250056 -0.03862806 -0.0066824406 0.09580113 -0.14582264 -0.131174 0.1289661 -0.030135935 -0.026195416 0.08958615 -0.0920575 -0.0690756 -0.08095581 0.10269697 -0.067723416 -0.07934944 0.041870944 0.009904149 -0.18111663 -0.04170331 -0.019061346 -0.0502777 -0.10149892 0.014901349 -0.036551427 -0.12336018 -0.014272535 0.0406164 0.0016452878 0.020354744 0.19840498 -0.08704478 -0.11383579 0.07548804 -0.048040498 -0.11839022 -0.04880723 0.08558382 0.02770234 0.19468828 0.07129476 -0.15956049 -0.018360429 -0.04888891 -0.046942722 0.017560879 0.061505463 -0.015740154 -0.077937365 -0.06964125 0.046142545 -0.060012337 -0.11080575 0.01344713 -0.08203923 0.05296296 0.052599818 0.014122817 0.0836959 0.0111434385 0.08043489 -0.028578991 0.020145468 -0.007957719 -0.06609731 0.07427646 -0.1346024 -0.032412548 -0.1284368 0.08229677 0.0075905384 -0.19515537 -0.05802272 -0.095475875 0.035842437 0.12382431 0.07661207 0.058960434 -0.026931921 -0.18026336 0.041217316 -0.016192464 0.10483997 0.09915008 -0.0020068819 0.06888398 -0.07148405 -0.05757311 -0.06746815 -0.18737422 -0.10174048 -0.07143264 0.17971197 0.1386637 -0.08050262 -0.01964792 -0.063562326 0.08810375 -0.087382756 0.039646372 -0.10385622 -0.06423188 -0.09019937 -0.1768993 -0.024023712 0.107119836 0.10037494 -0.031060344 0.005730743 -0.011107463 -0.1536951 -0.1000721 0.023590887 -0.17957383 0.020584332 0.06880531 0.060236048 -0.07924892 -0.0048854956 -0.124474704 0.0020568236 -0.051492255 -0.087533765 -0.103588484 -0.1304647 -0.09738104 0.068730436 -0.10052874 -0.038262516 0.08439495 0.055309493 0.18395971 -0.069920965 0.10590781 0.10497129 -0.013222893 0.015558578 0.070532925 0.12047905 -0.18817845 0.1704637 0.085864395 -0.06046617 0.01701828 -0.11161941 0.07678402 -0.021612646 -0.07298618 0.058533736 -0.19918434 0.07013498 0.047790825 0.08323541 -0.09933362 0.04506236 0.0015564015 -0.08498027 -0.020171877 -0.0004206976 0.045575924 -0.010726391 -0.018128682 0.10478192 -0.021013722 0.05029601 0.0767716 0.010663449 0.043854866 -0.05252635 0.021308532 0.04531544 -0.045433164 0.006358015 -0.052815646 -0.04506803 -0.0052731927 0.099254824 -0.1384444 0.07172347 0.14037606 -0.11073108 -0.03614832 -0.05602612 0.10434624 -0.03271393 -0.112330854 0.086286604 0.04404246 -0.04025091 -0.014697748 -0.046839423 0.109073855 0.06022463 -0.022842295 -0.18204978 0.013708954 -0.14218508 -0.017673412 0.07520553 0.14328186 0.028095786 0.082506865 0.122192636 -0.103412904 0.03258316 -0.077555746 0.045742333 -0.06672006 0.19042738 -0.13572596 0.057764918 0.11222483 0.07399311 -0.1158332 0.012333031 0.031476095 0.030815804 0.10935854 0.07534228 -0.13365826 0.116825774 0.05955848 0.0137999905 -0.112101614 -0.15019915 -0.16344103 0.1379324 0.06419756 -0.16122922 -0.03756428 0.059947032 -0.073147975 -0.17367727 0.039532 -0.0456692 -0.09340782 0.18297844 0.05538934 -0.054600377 0.03693166 -0.049792077 0.09702223 -0.04870351 0.12532197 0.14141157 0.065209635 0.11399195 -0.08567231 -0.09776508 0.04323327 -0.10678996 0.05923385 0.13042061 -0.004805142 0.048084676 0.004602104 -0.09040775 0.14109649 -0.19668645 0.031807527 0.108705595 -0.024672767 0.050476916 0.030866219 0.023207273 0.08284124 0.02420528 0.095257394 0.019291934 0.15084301 0.06103936 0.06277131 0.1019723 0.013975374 -0.0034347896 -0.07820608 0.1546032 0.1098933 0.11422761 -0.021445235 -0.023364749 -0.010244287 0.01248446 0.10504093 0.09495743 -0.06730501 0.045807973 0.09429514 0.00016623984 -0.12994926 0.05558556 0.038717996 -0.061899304 -0.028304398 0.16213094 0.027472217 -0.13173269 0.16373686 -0.018868834 0.047933683 -0.031390306 -0.17172876 0.047596645 0.09614225 -0.041568596 0.13479374 -0.12281112 -0.08406783 -0.053052735 -0.012836575 0.1677051 -0.15689872 -0.14143951 0.062165868 0.15002994 0.02480763 0.013301636 -0.0544326 0.16113487 0.062434595 0.019711463 -0.10756661 -0.081443064 0.037758794 -0.014641344 0.0342107 0.03032482 -0.079592995 -0.03503656 0.10454096 0.0691286 -0.002907197 0.007919259 0.11770282 0.08068135 0.0009877436 0.05817878 0.07305332 0.1363501 0.17344604 -0.08828535 -0.126047 -0.17288266 -0.17688194 -0.02540842 -0.037807327 -0.018148132 -0.076684885 0.022500604 -0.028949698 0.0710262 -0.105780624 0.01868747 -0.04805686 0.06891602 -0.11805846 0.06912693 0.12914282 0.0580804 -0.028819505 -0.038973015 0.005749214 -0.014898901 -0.1455017 0.04488684 -0.023521418 -0.02873671 -0.11218236 0.07552445 0.06698598 0.028532198 -0.008807155 0.08180351 0.10943412 -0.07157505 0.08462763 0.013199312 -0.013504281 -0.032161925 -0.1639168 0.12686853 0.008828371 0.006398033 -0.122596584 0.12552017 0.062528916 -0.0681121 0.030773124 -0.0041555054 -0.13838369 0.00028338362 0.056017023 0.01883183 0.02323412 0.08647057 -0.17740656 -0.04677226 0.110631965 0.10904697 -0.16219173 0.094274946 0.063870594 0.13193175 0.048974846 0.0231924 0.034565654 -0.09156011 0.060100418 0.0423808 0.12374393 -0.07028404 -0.16573547 0.017957045 0.019097643 0.0863463 -0.05343757 0.023820812 0.08046969 0.036108907 -0.07305246 -0.033434335 0.020152671 -0.06445297 0.08433237 0.05982097 0.017494941 0.002056671 0.11797112 0.06566634 0.15418132 -0.05178228 -0.18118024 0.14311269 0.100527905 0.11599082 0.048673686 -0.13443598 0.006295707 0.0071354234 0.014890409 -0.06676045 -0.09353762 0.06572519 -0.09047278 0.079312846 0.054540366 -0.11228839 0.026802897 0.18917385 0.017976962 -0.05427915 -0.008796076 0.03466647 -0.11307734 -0.10305714 -0.07608475 -0.15712856 -0.15484767 -0.10057179 -0.06964491 -0.05720157 0.044319533 0.04304047 -0.06822529 -0.06675588 0.039226953 0.03780187 0.013035293 -0.085411645 -0.010853148 0.03154633 -0.04609724 0.05391713 0.0038410057 0.005362665 -0.085028864 -0.059424527 0.06692543 -0.0045046103 -0.059045225 0.098260306 -0.044514276 -0.13313812 -0.036435038 -0.014442186 -0.0093017565 0.0891286 -0.08802356 -0.09499588 0.058296174 -0.02132771 -0.102169536 0.017750073 0.056587875 -0.043187346 0.07975948 -0.0034832496 0.104190946 0.013933929 -0.010807512 -0.050778646 -0.019901687 0.027164577 -0.045365743 0.051770456 -0.083104305 -0.015140958 -0.1255269 0.113308154 -0.065846756 -0.11856959 -0.0058336933 -0.05999873 -0.056914162 0.1473474 -0.002335967 0.06896403 -0.10057379 0.031433962 -0.07352613 0.008354461 0.09698134 -0.08040967 -0.06969847 0.08074977 -0.0022433996 -0.05868287 0.02007883 0.05186683 -0.02252446 0.045581162 -0.0499546 -0.14783247 -0.011662758 -0.11610967 -0.013167541 0.0059329974 0.023476107 -0.07918131 0.027351303 0.09046625 -0.09190699 -0.03890371 -0.12543474 -0.022596626 -0.1483247 0.01421409 0.021213582 -0.11258757 -0.10265702 -0.070130326 0.08676972 -0.058638748 0.036298137 0.019815532 0.01710028 -0.008062561 0.14955924 -0.029578501 -0.001742783 0.04919677 -0.09109493 0.01700459 0.08282844 -0.007838898 -0.01722144 0.043665778 0.043335326 0.10379781 -0.031598914 -0.19832756 -0.11563754 -0.026064172 0.109747104 0.036694743 -0.103463374 0.08645083 0.019062512 -0.0017236667 -0.013823402 0.04954813 0.004204921 -0.16149168 -0.01648209 -0.15932752 0.04140729 -0.10039329 0.081516586 -0.04533739 -0.12549733 0.031486157 0.07151967 0.09687041 0.048090275 0.12593035 -0.033013444 -0.04336856 -0.09357706 0.068203844 0.09055435 0.016284054 -0.17534982 -0.09073497 -0.0087842895 0.018622966 0.16731803 -0.05283303 0.1953455 0.0014916778 -0.048097223 -0.015430163 -0.040343974 0.0689995 0.035450544 0.09047967 -0.036839787 -0.05980285 0.008943638 -0.12513584 0.19117104 0.07589319 -0.035382427 0.14012864 0.0030623241 -0.06398169 0.056141257 -0.021473281 0.048178907 0.07723754 -0.10434663 0.026551008 0.01996209 0.0203886 -0.060247656 0.0036960437 -0.12839161 -0.10336133 -0.10999974 -0.10032642 0.02714107 -0.13694373 0.129399 0.07033941 -0.05205148 -0.05161484 -0.1378879 -0.056222003 -0.06084295 -0.038188517 -0.19269565 -0.04343377 0.062369324 0.06229197 0.10775425 -0.113423325 0.03095502 -0.056553613 -0.13522065 -0.011359236 -0.030261684 0.1867371 -0.05478518 -0.031303044 0.0052761347 -0.033230074 0.016147641 0.08200935 0.13790947 0.0047582854 0.005033485 0.038728084 0.03405967 -0.040140323 0.051244237 -0.032867536 -0.07010199 -0.1448013 0.083283745 -0.06117642 -0.18681808 -0.11922759 0.096322134 0.09078307 -0.07046925 0.016568366 0.005485246 0.04898848 -0.12598114 -0.0071258806 0.13357745 -0.090529114 -0.04415259 0.031798746 0.031204183 -0.0098824175 -0.11673885 0.17750548 0.054917604 -0.045574713 0.11069597 0.06673179 0.00079220824 -0.18406875 -0.004389701 0.12561086 -0.014112393 0.057627816 -0.1163667 0.08811643 0.15396029 0.016836949 0.009606497 -0.1537485 0.11485934 -0.16286282 -0.086662434 0.057125457 0.0008329667 0.019283345 -0.15029822 0.10226752 0.19537288 -0.11004921 -0.18031058 -0.06668684 -0.059688535 -0.012670775 0.04093745 -0.09461772 0.074238144 -0.16524161 0.10313978 0.1292272 -0.14563125 0.02701819 3.074155e-05 0.0053227744 0.05761656 -0.0504451 -0.012791953 -0.08045039 -0.060318153 0.1614038 0.053245932 0.079361476 -0.031099899 0.12860852 -0.17115216 -0.08012129 0.012587659 0.13285673 -0.004868191 0.0034306457 -0.024336154 0.17880023 -0.0089842 0.019791525 -0.015062305 -0.16737281 -0.044081323 -0.15322115 0.11566814 -0.1694436 -0.13694295 -0.002599363 -0.0037615474 -0.05298669 0.0020838531 0.09410667 0.08418615 0.010866567 0.038276713 -0.06344184 0.14154427 0.16158305 0.12886226 0.021216828 0.097684436 -0.02170487 0.15089273 0.05490275 -0.1427371 0.014566474 -0.07226049 0.0030590605 -0.16819768 -0.062420763 0.009828093 -0.032658007 0.06053688 -0.008645996 0.057270627 -0.0274161 -0.09499498 -0.09322142 0.048220355 -0.07830806 -0.06344699 0.014260347 0.034763172 0.11145755 0.15331922 0.0710831 -0.12384571 -0.11251893 0.061108362 0.19153284 0.099042855 -0.0056718686 -0.029736876 0.01239993 -0.0303016 0.015268405 -0.059671175 -0.099581316 -0.15173186 -0.018742286 0.14548264 0.05034247 0.0983923 -0.028233368 -0.12031537 0.19589089 0.07839232 0.15796751 -0.045483068 0.034283277 0.121957004 -0.13743697 0.07080293 0.0075526386 0.06342783 0.0165285 0.11105527 -0.10976311 0.021104692 -0.06837138 0.14949735 -0.013520355 -0.12179398 -0.12595133 0.07112527 0.081382744 -0.09522616 0.02549817 0.011150116 -0.01042811 0.16051613 -0.11797631 -0.020248147 -0.037090875 0.109503165 -0.007229516 0.019981926 -0.09726673 0.15669233 0.10004679 0.058621444 0.18598352 -0.19258125 0.046746504 -0.010863113 0.07238542 0.00801735 -0.03509416 -0.15385312 -0.027622221 0.061006933 0.050710913 0.017212015 -0.07459652 0.10768288 0.011990233 -0.037608396 0.17455642 0.11996695 0.005685862 -0.07178017 0.022780752 -0.02654682 0.10568636 -0.024616761 -0.024459584 0.15094766 0.13389562 0.14451015 -0.15329365 0.12623088 0.08601904 -0.13508528 0.14167191 -0.07180632 -0.036682528 -0.050137755 0.06044134 0.1220739 -0.18277408 0.042210154 0.14706519 0.1182945 -0.020357853 -0.013320111 0.19754726 0.10492992 -0.020060187 -0.0010170931 -0.0054190746 0.08120497 -0.002660342 -0.18115333 -0.015100136 0.06540208 0.10203443 0.046846397 -0.063897006 0.027651478 -0.028870815 -0.021359583 -0.032372203 -0.09141515 0.01086096 -0.014911345 0.15656795 -0.0095645515 -0.13742618 -0.033821896 -0.041543517 0.04703859 -0.029068196 0.037486777 0.072847225 -0.065052606 0.024148779 -0.023342602 -0.010609646 0.11055996 0.022715278 -0.064352654 0.1396406 0.12730592 0.11386646 -0.026467547 0.035531964 0.06902853 0.02689829 0.027469233 0.16206093 -0.04637867 0.007823864 -0.097165756 -0.05631097 -0.19608699 0.131243 0.07719745 0.028255781 0.12532935 -0.060653657 -0.06558254 -0.11059101 0.040958274 -0.1365773 -0.024497662 -0.16317877 0.12659346 -0.02740483 0.0064733387 -0.05344993 0.020320097 0.01631272 -0.05706324 -0.0679329 -0.014999245 0.15786086 -0.03448553 0.03754701 -0.08829129 0.060533375 -0.036229845 0.0651254 -0.084632635 0.043560587 -0.046460338 -0.10237893 0.008196771 -0.020265816 -0.032243848 0.05367432 0.062350728 0.046951044 0.046175916 -0.032390743 0.021363229 -0.12303245 -0.1103726 0.10402212 0.13293974 0.056854405 0.03891513 -0.01782029 -0.036501825 -0.004727617 0.009573125 -0.10784786 -0.11162436 0.06527425 0.19074415 -0.113877155 -0.05405102 0.15121251 -0.016853772 -0.07174819 0.14680728 0.020525152 -0.049703356 0.011757478 0.11782028 -0.13307777 -0.16413137 0.113087654 -0.027712125 0.0394066 -0.025238056 0.10181546 0.10819341 -0.07674458 0.06449936 -0.07546013 0.07047471 0.050530672 -0.02743615 0.079764694 -0.044792153 0.09207533 0.009503285 -0.022093289 -0.11307738 0.14269547 -0.059965212 -0.004119722 0.14798869 -0.025046462 0.032781046 -0.057298034 0.04020281 -0.09600113 -0.068624616 0.034047347 -0.16279213 -0.049094204 -0.097670175 0.11526 0.066923864 -0.035086192 0.094995916 -0.098741315 0.047504652 0.058647614 -0.03589071 -0.11767489 0.0836551 0.13197757 -0.063116126 -0.13098484 0.025436968 -0.096207365 0.16559617 0.0045396346 0.009492463 -0.0033069483 0.043859005 -0.06481104 0.16306646 0.1016282 -0.038679767 0.0040009627 -0.105718434 0.07174206 0.11599088 -0.15258305 0.16748299 -0.006865372 0.059889358 0.095870264 0.03256562 0.15442851 -0.034578342 0.07093922 -0.10070943 -0.087848894 -0.05344498 0.050894614 0.009787063 0.15441965 0.08140737 0.13993631 -0.029113924 0.00048862636 -0.017239857 0.15950269 -0.012464951 -0.018984169 0.07428705 0.10514977 0.10158072 -0.1639705 -0.044814665 0.15139523 0.03827728 0.015778806 0.07354416 -0.066841446 -0.0674114 -0.06960273 -0.1533999 0.04105221 0.0072368733 -0.016490882 -0.038484804 -0.011472543 0.15362023 0.019044207 0.08497591 0.008382073 -0.09176974 -0.1011071 -0.15137883 -0.024786446 -0.123472266 0.14153199 0.115107596 -0.060008742 -0.113923155 0.16799559 -0.1641768 -0.12831403 -0.04428852 0.078882225 -0.080482624 -0.07273364 -0.06761037 0.1937775 -0.026287993 0.017407151 0.075145654 -0.007242796 -0.09497693 0.14054959 -0.015293452 0.1704915 -0.019371895 0.089655735 -0.0037634724 -0.02129877 -0.068459444 0.074813046 0.008757903 0.12317832 0.042574327 -0.11553209 0.053662907 -0.1684438 -0.003244133 0.054463327 -0.093164876 -0.035345834 0.14823519 0.060429282 0.015237416 0.17001076 -0.013339958 0.08027109 -0.11591351 -0.06427913 0.12681043 -0.057501085 -0.12091356 -0.03012229 -0.035292234 -0.024604857 0.13736427 0.05903377 -0.05567938 -0.1525449 -0.045941025 -0.17373382 0.085114546 0.089729115 0.1059973 -0.13926534 -0.15558282 0.19720373 0.10713809 -0.17939557 0.1254618 -0.105320014 -0.100796394 0.019729372 0.061211087 -0.014234032 -0.018344952 0.009640789 -0.030027283 0.118005276 -0.022435239 -0.12055921 -0.11848154 0.060467865 -0.029152358 0.17705908 0.09471014 0.11659236 -0.11040204 0.10387298 -0.113676384 -0.046767015 -0.053870093 -0.060335588 -0.16599719 0.16568427 -0.04522928 -0.12816916 0.19098364 0.015859053 -0.09454414 -0.05031357 -0.122847654 -0.14914131 0.074171364 -0.09845801 0.093053155 -0.07649047 0.101874195 0.020515187 -0.078517824 -0.029585415 0.09657977 -0.11660408 0.055773925 -0.07360801 0.14356795 -0.15371071 0.14173444 0.04813839 0.04516955 0.041509073 0.074012905 0.10182994 0.11311096 0.0043738796 0.06689476 0.032185853 -0.18713538 0.02413053 -0.15287076 -0.06815343 -0.061840814 -0.0004225883 0.08701588 0.18324766 0.068553746 0.11278739 -0.07217851 0.006603309 -0.079298414 -0.114046626 0.033697437 0.15275276 -0.06977623 0.11686335 0.06758122 0.08235163 0.09694559 0.0047016353 0.0010346078 0.08929091 0.016208783 0.035209976 -0.1735019 -0.022286406 0.039778363 -0.028231842 0.11900844 0.040129684 0.11167268 0.05281335 -0.09027973 -0.041335557 0.15429567 -0.07551239 -0.11172023 -0.043379642 -0.02371248 -0.029985521 -0.18961559 0.008344076 -0.10158678 0.014076729 0.07682756 0.07653841 0.050592776 0.008873921 0.13322967 -0.111057185 0.083320975 -0.016390149 -0.0146502955 -0.05848379 0.038553488 -0.020385128 0.06796215 -0.0979133 -0.11873317 -0.07270729 -0.18106091 0.09030324 -0.13066159 -0.13723055 0.005657516 -0.06525374 -0.05655544 0.18640369 -0.016995622 0.18077302 -0.1550574 0.17013395 0.005804002 -0.010977738 -0.033643316 0.1575012 0.107390784 -0.066450916 0.02096646 0.03902215 0.17090358 -0.08844591 -0.08776591 0.010343521 -0.0022700694 0.08062795 0.030464763 0.053235423 0.07347842 -0.06698425 -0.027649561 0.08168385 0.036162537 0.001515575 0.053816497 0.043964397 -0.047552932 -0.0027206417 -0.036119066 -0.14819466 -0.082837716 0.051857706 -0.0711515 0.07295042 0.02342487 0.05121822 0.17139344 -0.17887305 0.09299754 0.10797544 0.05103771 -0.07648456 0.15563872 -0.05403471 0.035543416 0.12421667 -0.15001391 -0.07633322 -0.004252935 0.060875632 -0.1422857 -0.09464541 -0.012851941 -0.05361826 -0.054948844 -0.0094632795 -0.09955077 -0.12164241 -0.11926856 0.117706336 -0.05751885 0.17935316 0.02649485 -0.04213347 -0.037933096 0.11047532 0.045444947 -0.007872868 -0.028192421 0.024250258 -0.11826867 -0.07050046 -0.18174078 0.06794782 -0.14264308 0.028136496 -0.130367 -0.17258672 -0.12397623 -0.045773316 -0.10653307 -0.07820682 -0.042912934 -0.14941089 0.013961347 0.102769434 -0.035173383 0.034146868 -0.08902725 -0.12420186 -0.083044335 0.13729945 0.17640607 -0.13360058 0.15267156 -0.0034727769 -0.04622959 -0.03655949 0.09292195 -0.038978215 -0.04792131 0.014106129 0.01261432 0.014898877 -0.027871579 0.06924486 -0.02082737 -0.16473152 0.044543188 0.15063666 -0.11186954 -0.042537943 -0.017231701 -0.039832253 -0.07462992 -0.15043129 0.09068857 -0.0018811541 0.11849739 0.093700066 0.04959958 -0.055575408 0.09787515 -0.080046006 0.007679236 -0.092873216 0.02112714 0.107034646 0.017926788 0.02872446 0.0063541303 0.034355354 -0.05337697 -0.07828308 0.03699516 -0.16906399 0.058524054 -0.00041864763 0.018795192 0.047701422 -0.09391014 -0.084776066 0.09264274 0.031895958 -0.12258668 -0.06214217 0.027509768 -0.05128401 -0.014805905 0.0071789934 -0.12147824 -0.019205479 0.12316076 -0.028444884 -0.11684469 0.119663715 0.05191634 0.16492166 0.010134042 -0.004392354 0.0668496 0.06785544 -0.047840543 -0.036261544 -0.06374534 0.068073 -0.050118554 -0.081504814 0.14842598 -0.16179411 0.09912322 -0.10035415 -0.07399475 0.08085255 -0.067935705 0.1794992 -0.006704776 -0.0181209 -0.0448689 -0.056283575 -0.06214359 0.017921476 0.06955559 0.06730494 0.009804403 0.07465666 0.15730225 -0.13954061 0.04835208 0.049659427 0.06285987 0.031503912 -0.105328195 0.0640189 0.17574947 0.060427077 -0.07514914 -0.05886772 0.030600805 0.0023702965 0.15664922 0.049046956 -0.0541885 0.06574741 0.0031087843 0.10548212 -0.047050923 0.013240877 -0.18408552 0.17011918 -0.11299999 -0.13736083 0.09427851 -0.05948543 0.087785356 -0.0917668 0.0037136083 -0.015007823 0.17610869 -0.007973093 -0.026750399 0.12727875 0.08245388 0.0281255 0.13625525 0.027259132 0.030637205 -0.1227924 0.0761491 0.1589004 0.13614528 -0.12047576 0.013508863 0.09412993 0.15874727 0.092406854 -0.030587299 -0.067865916 0.17470858 0.1480621 0.032453716 -0.1031981 -0.0051832204 0.10910612 0.05073897 -0.008017837 0.11072602 0.107449114 0.10073006 -0.13131464 -0.0125125265 0.092321366 -0.036873873 0.010210655 0.022201864 -0.13412987 -5.9991104e-05 -0.04715579 -0.13822043 -0.00930123 0.1738814 -0.00598224 -0.067258805 -0.027546704 0.13389042 0.040765986 -0.00529096 0.021657353 -0.0632587 0.028331498 -0.0698063 0.006060242 0.023231078 0.030849641 -0.19311593 -0.050625768 -0.033658437 0.11504805 -0.068078466 -0.025808558 -0.099820964 0.009085179 0.0008163412 -0.06726731 -0.08608721 -0.13945508 -0.023213748 0.1507614 -0.053118277 -0.051063485 -0.010202531 0.06820229 -0.04531369 -0.15210901 -0.0440225 0.05223597 0.1935047 -0.06864211 0.15062678 -0.0018200297 0.028862724 0.13811499 0.09642728 0.15282135 0.048158888 -0.15270887 -0.06505779 -0.1163283 0.0607558 0.0021458152 -0.14483242 0.082073055 -0.19858226 -0.12688883 0.051662423 -0.14594835 0.023286065 0.05101989 -0.025092358 0.064566515 0.015247226 -0.0785893 -0.16721962 -0.1154925 -0.050611228 0.0069218427 -0.13894968 0.08210997 0.10342596 0.123026095 -0.036871217 -0.05789057 0.020688048 -0.077267654 -0.053178497 -0.07087586 -0.0050154505 -0.12181959 0.092860214 0.06329127 -0.043178275 0.046915125 -0.100085795 0.19649778 -0.082695745 -0.07746629 0.07913747 -0.00946811 0.02078095 -0.11868922 0.023964861 0.049415674 0.046518143 0.016847117 0.095089 -0.19284429 -0.045315713 0.12176187 -0.14185344 -0.08670957 0.087974325 -0.06372982 0.069307014 -0.099682145 -0.18809985 0.020134524 -0.16390929 0.10894465 0.08947303 -0.06592042 0.09956614 0.04592253 0.04519573 0.08186672 0.07137679 -0.14710253 -0.16183452 -0.018061187 0.11046316 -0.11544154 0.052981477 -0.050690677 -0.076394886 0.07839133 -0.026428703 -0.06476026 -0.06335979 -0.053454645 -0.05322332 -0.023322016 -0.087129585 -0.062405743 0.021995034 0.028413972 0.0331554 0.07320396 -0.118902184 0.053002473 -0.06152712 -0.07030595 -0.05249534 -0.1518593 -0.0714748 -0.09971141 0.19288 -0.13729516 -0.001349653 -0.04699062 0.093158424 0.17751881 -0.015658094 0.1438108 0.10482011 0.030677497 -0.060281035 -0.11266219 0.03942554 -0.008250687 0.09402045 0.018177276 -0.107592605 0.013179055 -0.04985803 -0.0064993254 -0.09112012 -0.15473248 0.18436506 0.13957906 0.17382507 0.047574557 0.00946906 0.062078387 -0.024485813 0.07426207 -0.05570638 0.08729033 0.0975312 0.13143882 -0.0035787341 -0.07505646 0.032364845 0.054145254 -0.047461476 0.025696633 -0.079752736 -0.026279602 0.028697092 -0.00070811505 0.11936752 -0.0070215366 0.120378844 0.038738202 -0.12314371 0.1199608 -0.054286983 0.051223904 0.024624271 0.06313426 0.090362154 0.020999962 0.014057676 0.025240818 -0.11774963 0.13376097 0.03616206 0.047247883 -0.07515735 -0.1687352 0.053840388 -0.07866891 -0.008906561 0.12504296 -0.0065752836 0.040092226 0.039263975 0.10746499 -0.17591463 0.10501193 0.049787495 0.19730526 -0.04727349 -0.03105465 -0.064692296 -0.11786661 -0.103104785 0.01609203 0.022513574 -0.08860386 0.059117597 0.0103832865 -0.07995837 -0.11685517 0.013849261 0.15001957 0.051910024 0.096950606 0.005972696 0.017650863 -0.07674222 0.07860725 0.023861904 0.12602292 -0.014601417 0.08989995 0.14520139 -0.114111505 0.10678661 -0.07066802 0.05907166 -0.034293376 -0.17363916 0.018529026 -0.14551513 0.071446024 0.045132637 -0.012324049 0.18012883 -0.057726104 -0.081626244 -0.067673184 0.075557984 0.052540928 -0.08139058 -0.14725415 0.021544142 -0.1595059 0.11852814 0.10462403 -0.07445923 0.13544665 -0.06753099 -0.047309835 -0.0122659905 0.1669332 0.16282669 0.11407008 -0.022284586 -0.10139209 -0.08806879 0.15427022 -0.11228106 -0.0054394514 0.043740246 0.06446694 -0.07501251 -0.08481919 0.08593458 -0.038225476 -0.12620205 0.12372186 0.0055853627 -0.09254631 -0.11997712 -0.13565569 0.059136283 -0.048025362 -0.020191714 0.11913557 0.011905947 -0.1953014 0.0003190556 0.032519363 0.14797044 0.12586121 0.04786055 -0.020457264 -0.030330976 -0.022307413 0.08706761 0.105382815 0.16098657 0.061295755 -0.029832372 -0.08418993 0.07325165 -0.04206828 -0.07235138 -0.01459174 -0.022096654 -0.13555239 0.0045901 0.07267283 -0.12635553 -0.035970345 0.089764796 0.10437738 0.17558053 0.00136903 -0.03793732 0.12679997 0.19130372 0.14420207 0.068968 -0.02706307 0.09083963 -0.0043755723 0.12633418 0.056927215 0.10718211 -0.03241105 -0.13352829 -0.07132187 -0.11423268 -0.10202276 -0.09577023 -0.03925035 -0.018448109 0.0144746555 0.100968264 0.049352076 0.03795492 0.17273799 -0.11240818 0.05531605 0.1981951 -0.0658571 0.034797575 -0.063259445 0.059356432 -0.06203387 -0.09214047 0.053308286 -0.16470018 -0.10611335 -0.053979617 0.009101764 -0.07073265 0.088884175 -0.07430612 0.14355066 -0.057975937 0.18199132 -0.09561337 0.019722786 -0.19868362 0.06663179 -0.06891411 0.009003514 0.0016348474 0.04570201 0.052601773 0.07871609 0.11692897 0.08012983 0.13337685 -0.11376556 -0.07271286 -0.11175612 0.04875062 0.03439456 0.050310284 0.036459785 0.05672064 0.03878839 0.16448615 -0.090540454 -0.12636934 0.19146451 -0.00059643335 -0.061763264 0.058153313 -0.083392315 -0.055816736 -0.016020074 0.038457107 0.12618951 0.069728345 0.055818904 -0.0023660169 0.14628692 -0.09302198 0.078676015 -0.08445193 -0.013234186 -0.10108278 -0.096902296 -0.026009312 -0.036422487 -0.020878643 0.1699731 0.045542408 -0.16779922 -0.0153833525 -0.13167366 -0.089877576 0.10517361 0.13600022 0.11005664 -0.0096600605 0.04279795 -0.028041959 -0.010284158 -0.14698748 -0.06282198 0.030584482 -0.0165783 0.031127278 0.02431956 0.19504063 0.12781821 -0.122276805 0.1628175 -0.0968081 0.07387121 0.053495195 0.03645687 -0.15391885 0.017013771 0.064197466 0.039039724 0.08130586 0.11783631 0.08242847 0.16518952 -0.039346557 -0.059574224 -0.011461109 -0.030981896 0.036228824 -0.02590394 -0.041853543 -0.059861656 -0.06269153 0.020592626 0.019890053 -0.13578904 0.066327006 0.021118198 -0.011919766 0.14158686 0.08756401 0.0850663 0.09106582 0.07307642 0.024811007 0.011771721 -0.109815575 -0.056577887 0.10637169 -0.0104961265 -0.0496446 0.03594751 -0.17425019 0.03839269 0.0065613287 0.13605471 -0.07185013 -0.011376233 0.064437404 -0.017009316 0.13459834 0.06338505 -0.033900466 -0.15969574 -0.007968346 0.06796318 0.04401774 -0.041925084 -0.1475557 -0.10745853 -0.18732248 -0.008781179 -0.008166776 0.0756258 0.083844274 -0.0850123 0.037133303 -0.12786134 0.12166353 0.12838045 -0.021014541 -0.0110831475 -0.023007572 -0.16830961 -0.08265996 0.056309935 -0.11144262 -0.033310067 -0.16578285 0.013581074 0.14095663 -0.064260416 0.021789644 -0.05259433 0.0041373735 -0.008499417 -0.012369654 0.092453234 0.007872099 -0.08415299 -0.04362272 -0.11103715 0.013742215 -0.05290556 0.04591347 -0.049606115 0.13884856 0.077637374 -0.050997525 0.0074985623 0.06851135 0.090992674 -0.09738458 0.04087245 0.004872053 0.01039129 0.12111139 -0.0015369899 0.08253417 -0.045361068 -0.053312596 0.052449234 -0.034532875 0.0010202227 0.12705766 0.026710927 -0.09255705 -0.022843674 -0.09979392 -0.14473447 0.13577382 0.038604032 0.011086052 0.08867489 0.09801706 -0.02654309 -0.03150679 0.024170037 -0.108706094 -0.08006825 0.00083833927 -0.11081038 0.01993687 -0.19549258 -0.038871076 -0.11714318 -0.025810862 -0.104304634 0.055387575 -0.012442647 -0.082397744 0.02347562 0.13281971 0.1255237 -0.14832528 0.10762804 0.15791777 -0.03152896 0.056742575 -0.11190411 -0.097022735 -0.049879596 -0.04415957 0.0144688925 0.09257191 0.029462043 0.091826215 0.015853144 -0.06697914 0.11884159 -0.039609365 -0.030208085 -0.03048863 -0.13177839 -0.025543705 0.05593601 -0.07661647 -0.024687126 -0.09207608 0.104054905 0.10080532 0.016265273 0.03883112 0.023672896 -0.00027248843 -0.08710053 0.02883255 0.010163064 0.06809698 0.07501962 0.03428309 -0.020414082 0.0339791 -0.001257901 -0.06045353 0.035020802 -0.002370782 0.13262911 -0.04830166 0.0030609262 -0.034751065 -0.15516335 0.04437187 0.008193231 0.06072519 0.046356723 -0.008517468 0.07059278 -0.037022 0.012138086 0.023206187 -0.07646027 -0.12000269 -0.082951404 -0.122338764 -0.03820766 0.13062726 -0.1530162 0.15986462 -0.018933695 -0.030796831 -0.13681595 0.12038695 -0.038023453 -0.16390215 0.19257888 -0.105368935 0.025955696 -0.0744551 -0.062789194 0.0064335647 0.008357259 0.08052289 -0.15511309 0.060296517 0.013408999 -0.18904676 -0.10056766 -0.053468116 0.046459567 0.1996719 0.11326655 0.089660905 -0.013194091 0.021830391 -0.0928242 0.050995834 -0.17403747 -0.049861576 -0.069323264 -0.080917574 -0.07365373 -0.06173567 0.01612039 -0.055326045 -0.08730579 0.04161037 0.17724536 -0.0986109 -0.067021795 0.10395389 0.018630197 -0.0180357 -0.033162225 0.00024521674 0.12681258 -0.05721096 0.009804385 -0.13854584 -0.104179144 -0.05518148 0.034002762 0.002631346 -0.014149452 -0.03531083 0.095610105 0.028436957 -0.04581447 -0.03795819 -0.03995275 -0.014693096 -0.07847153 -0.12068584 0.065400206 0.11477484 0.16837335 0.079402015 -0.0067192256 -0.061496045 -0.08077365 0.0647976 0.168341 0.022495259 -0.16679315 -0.11463058 0.12155098 0.0029677898 0.13072573 -0.020142088 0.07281598 0.05636857 0.092953585 0.08188962 0.1522033 0.113122165 -0.012865767 -0.08715307 -0.10796805 0.09622742 -0.06771974 -0.054646146 -0.054977376 0.04581023 0.025247185 0.027685845 0.051751614 -0.09488215 0.006400758 -0.14399712 -0.13994098 -0.018474592 -0.11008773 0.025493136 0.014426704 0.076524295 -0.055176176 0.094851464 -0.18209767 0.047562428 -0.16484755 -0.05946159 0.09073547 0.07077666 0.042808156 0.040041197 -0.119265154 0.027418008 -0.109993115 -0.10740618 0.08669295 0.023578176 -0.14344814 0.020950552 0.1341816 0.020898102 0.048989736 0.15673998 -0.08564911 -0.111251846 -0.14259665 -0.054261398 -0.020680899 -0.03704223 -0.055658877 -0.039608207 -0.0185175 -0.011169233 -0.18986718 0.12906836 0.0106069995 0.05855235 0.11368336 0.06566808 -0.032095846 -0.08236514 -0.10242559 0.15665093 0.07494419 0.0182495 -0.062032994 -0.04709977 0.045649238 0.09951304 -0.021986037 -0.18840449 0.09182583 -0.045772653 0.06915202 -0.10719311 -0.09647061 -0.15166654 0.00070109725 -0.014295419 0.14990295 -0.023525601 0.05330355 -0.0042487136 -0.13576351 0.012756829 -0.12104797 -0.073206365 -0.028592903 -0.0022959171 0.07604942 -0.0023292813 0.0020965904 -0.02448482 0.09268432 0.18188323 0.0160557 0.01680135 -0.048600014 -0.0066246255 0.0074297087 0.012646749 -0.052842736 0.10154327 -0.13280272 0.1814351 0.18549351 0.061271347 -0.1336993 0.119941436 0.044885986 0.013121872 -0.1388383 -0.019919183 0.044195417 -0.087327205 -0.11165482 -0.09484672 0.118624985 0.069317386 -0.02922183 -0.07822551 0.0027673927 -0.09925685 -0.07110294 0.06600601 -0.06275277 -0.12254675 0.014639904 0.09819602 -0.0770736 0.07586768 0.02806578 0.005471591 0.01607777 -0.038783383 0.1464917 0.14382719 0.046447296 -0.040516265 -0.018197922 0.02557543 -0.19287266 -0.044228185 -0.18322693 -0.0079720905 -0.10269777 -0.032863326 0.0152862165 -0.089939676 0.05377179 -0.17227595 -0.09784889 0.020969832 -0.034448147 -0.056194365 0.05559207 0.023595382 0.14989549 0.007983812 -0.11846887 -0.052555718 -0.15965353 -0.00449415 0.06390976 0.019342495 -0.042236194 0.01383281 0.111432806 0.03926554 0.0147927245 0.19346176 0.110189214 -0.04453026 -0.18349414 0.094929196 0.13253175 0.021637201 0.052526135 0.08727379 -0.115908675 -0.0037424401 -0.004134945 0.07393641 0.102145605 -0.12551317 -0.017603833 -0.06367945 -0.059052397 -0.072193645 -0.093743 0.0014269137 -0.056486975 0.0075155683 -0.12730065 0.066065006 -0.064421564 0.043394458 -0.10393715 0.00159877 -0.0038851579 -0.06585761 -0.06503339 -0.027827797 -0.034954254 0.0062014847 -0.0069319378 -0.047565077 0.03465608 -0.080949284 0.023778997 -0.03941619 -0.025443051 -0.1108768 -0.031309914 0.14483123 -0.06989198 0.12877907 -0.18500492 -0.10066775 0.11741874 -0.14082475 0.011822641 0.02274184 -0.10051965 0.09316357 -0.04868854 -0.13076556 -0.19132578 0.123563804 0.11500058 0.105484866 -0.08511006 -0.04014504 -0.1782779 -0.011840573 0.010095189 0.081555985 0.054710556 0.10169144 0.03607231 -0.048318543 0.06397694 0.036958788 0.07717747 -0.014902979 0.024275439 -0.01474673 -0.08299906 0.10127374 -0.10893237 0.03843006 0.023325032 -0.053259756 0.17366844 -0.015600507 0.09274533 -0.021479273 0.052979495 -0.14559352 0.050578065 -0.130784 0.15881908 0.10605691 -0.04562744 -0.071192354 -0.027637104 -0.021157099 -0.024371311 0.006983516 -0.11445004 -0.068996795 -0.091709614 -0.098816566 -0.19594593 0.14822303 -0.18821597 -0.19382584 -0.08999818 0.008387027 0.05132533 -0.0394967 -0.08943278 -0.029903078 0.068442725 -0.07779262 -0.13925968 -0.0052828593 0.0016704539 -0.19527298 -0.08795583 -0.0076685795 -0.008998077 -0.117369585 -0.01932117 -0.13884173 -0.17044048 0.023701565 0.048374694 0.09948106 -0.041777115 -0.13301319 -0.15499565 -0.030818805 -0.17574684 -0.07594953 0.1375776 0.025804667 0.06477904 0.020305881 -0.11257237 0.050109714 -0.077240184 -0.10792756 0.051871132 0.03055419 0.012945496 0.10910665 -0.038426604 -0.11294446 -0.15434413 0.0112976795 0.10258677 -0.043075554 0.029974818 -0.032527126 0.124723375 -0.015385913 0.0419929 0.07699823 -0.08133349 0.022755574 -0.079046756 0.08509902 -0.078303955 -0.07958094 0.039117474 0.10372504 -0.00014756374 0.083805576 -0.12402039 0.03254224 0.13816313 -0.15569581 -0.0028780499 0.17701249 -0.14583689 0.04986427 0.07829835 -0.03081773 -0.059125748 -0.036294464 0.11540184 -0.070387475 -0.08608364 0.029151445 0.0019674767 0.087018594 -0.00029503167 -0.1459367 -0.032481816 0.04833273 -0.022414794 0.16626905 0.05031867 -0.0757161 -0.0028326456 -0.05031362 0.034738276 0.09919637 0.0054976246 0.18876673 -0.09021699 -0.11838275 -0.0076237023 0.07310751 -0.028125793 0.13208076 -0.11001103 -0.08217739 0.009389513 -0.036691483 -0.0043242616 0.07127726 0.08855132 -0.036739856 0.052640676 0.0062981555 0.08771059 -0.033896293 0.1181185 0.048564818 0.073250055 0.053286474 -0.00768025 -0.0955189 0.0214615 -0.17450242 0.17452043 0.13749741 0.114491574 -0.008313749 -0.014553917 0.050059367 0.16805461 -0.060112454 0.03824852 -0.08023112 0.039672595 -0.14165567 0.080738775 0.0157638 -0.09432997 0.026206804 0.092479676 -0.11414831 -0.008880693 -0.1478621 0.041005455 -0.062408574 -0.19888678 0.00802155 -0.0771319 -0.10740918 0.14029157 0.03626443 0.041375574 0.053945478 0.044363502 -0.0072681913 -0.011629857 0.12402787 0.13368407 0.017210275 0.18312174 -0.09647557 -0.1281555 -0.11961615 -0.048957225 0.023060804 0.042178877 0.0095346235 0.048481744 -0.05036475 -0.0039395145 0.0013660559 -0.14349578 -0.11892313 0.018316437 -0.09157064 -0.14086257 0.045751743 -0.10898314 0.099837326 0.0034291993 2.1609314e-05 -0.056332987 0.15241742 -0.15882204 0.015552731 0.14836542 -0.08508876 -0.1605634 -0.1493797 -0.06324076 0.09038563 -0.034554146 -0.11437303 -0.15838328 -0.0325656 0.14118664 -0.06507807 0.14542562 0.024526862 0.032278504 -0.14433332 0.026920056 0.15367453 -0.17150512 -0.07129755 -0.015889583 0.048011847 0.008199118 0.0024427117 -0.07843264 -0.02880883 0.07843441 -0.07626651 0.011381298 -0.074173406 -0.03814823 0.18801604 0.1709027 -0.040174913 0.062474877 -0.054508187 0.049756538 0.05039334 -0.014621273 -0.022846702 0.13941796 -0.10714944 -0.015344088 0.11056874 0.0015163141 -0.17703462 -0.05857838 -0.17122225 -0.10302631 -0.023858432 0.08089163 0.004969548 -0.0042480202 0.09927577 0.08790585 0.06773538 0.017928664 -0.029362325 -0.00904958 -0.047258608 0.014860918 0.035699792 0.037259076 -0.0629635 0.06613049 0.009315676 0.1005462 0.04881752 0.08774921 -0.026939293 -0.04134147 0.037544485 -0.029769877 0.11487391 -0.009670509 -0.13821104 0.022041319 -0.1557817 0.09384944 0.021064924 0.08994032 0.05138857 0.09940083 -0.14258331 -0.042014476 -0.10202862 0.03668263 0.066867 -0.021030901 -0.09719687 0.13260035 0.15063284 -0.1408846 0.01604472 0.04816825 0.067921154 0.010881109 -0.115773015 0.012973929 0.013560466 -0.047429852 -0.09725576 -0.09028498 0.042115875 0.17455287 0.12056625 -0.10182854 -0.03979658 -0.012090261 -0.14440855 0.04675507 0.17738488 0.07237657 0.068873815 -0.043726504 -0.11662996 0.016239198 0.03259505 0.02562557 0.05672614 0.013984914 -0.009811352 -0.03775318 -0.026809985 -0.13457915 0.04150118 -0.07129175 0.0047633843 -0.0044800653 -0.09849191 0.07604408 -0.1828529 -0.028181328 -0.076482706 -0.0395662 0.118390314 -0.056892574 -0.072547995 0.029500505 0.004974368 0.05204321 0.07023259 0.17719416 0.03558219 -0.03964534 0.044073492 0.04837998 -0.028171694 0.09330258 -0.06273698 -0.037653297 -0.019995062 0.1667069 -0.16895132 -0.008801698 0.094281144 -0.069633596 0.12669753 0.0033003793 0.051572837 0.10338359 0.04334993 -0.16418594 0.009105596 -0.020339029 0.14933297 -0.012205719 -0.17489044 -0.04368124 -0.19028917 -0.08177258 0.12312635 0.08904334 -0.07464676 0.1512003 -0.065639734 0.12199389 0.0009586324 0.09332623 -0.10467879 -0.08590877 -0.071926214 -0.045073718 -0.07129966 -0.018485514 0.05762818 0.019534843 -0.08168693 0.12878163 -0.061734993 -0.043025035 0.055074472 -0.089184836 0.15806432 0.09655233 0.117323555 0.12554982 -0.11785772 0.033477243 -0.021802863 -0.07654106 0.046541892 0.065343924 0.17815578 -0.014408156 -0.12128287 0.0014517922 0.06868625 